{"layer0": {"weights": [[-0.05943932384252548, 0.017518162727355957, 0.0499536469578743, 0.06739635020494461, -0.01678377389907837, -0.026998743414878845, -0.007488459348678589, 0.04305016249418259, 0.06995628029108047, 0.014499552547931671], [0.075164295732975, -0.04244553670287132, 0.02759518474340439, -0.04603032395243645, 0.03338147699832916, -0.04489191249012947, -0.0543525330722332, -0.005883626639842987, -0.038939956575632095, 0.0831698402762413], [0.0415659174323082, 0.06726648658514023, -0.018735066056251526, -0.08584927022457123, 0.01872836798429489, 0.03295674920082092, -0.00948389619588852, -0.06368544697761536, -0.06071781739592552, -0.07726094871759415], [0.040976546704769135, -0.0537855438888073, 0.032043710350990295, -0.01427304744720459, 0.013946764171123505, -0.0002659261226654053, 0.018042579293251038, -0.07663138955831528, 0.04321318119764328, -0.08621841669082642], [-0.07611169666051865, -0.06718418002128601, -0.00043673068284988403, 0.062296487390995026, -0.016080744564533234, 0.047262392938137054, 0.04462515562772751, -0.03146073967218399, -0.014639079570770264, 0.03499186784029007], [0.04985899478197098, -0.006871752440929413, -0.0352376326918602, -0.02453818917274475, -0.03360937535762787, 0.04820302873849869, 0.04627867788076401, -0.021899044513702393, 0.07564153522253036, -0.08553032577037811], [-0.05414337292313576, -0.07894483208656311, 0.0804896280169487, 0.008119843900203705, 0.0012283623218536377, 0.08063182979822159, 0.0696893110871315, -0.04562404379248619, 0.05382544547319412, 0.0044245049357414246], [0.07914953678846359, -0.020478449761867523, 0.024135716259479523, 0.08109315484762192, 0.06615055352449417, -0.055059418082237244, -0.01793275773525238, -0.03699379041790962, -0.03610638529062271, -0.03554847463965416], [-0.012858323752880096, -0.05894416943192482, 0.010099776089191437, 0.0421287938952446, -0.014998294413089752, -0.0063684359192848206, -0.08274836093187332, -0.0790371298789978, 0.06071764975786209, 0.048705242574214935], [-0.0009978339076042175, 0.061578862369060516, 0.022871196269989014, 0.08500581234693527, -0.062431298196315765, -0.0010920912027359009, 0.023191653192043304, -0.05329523980617523, -0.0670257955789566, 0.05890800803899765], [0.06848891824483871, 0.05234437435865402, -0.08059722185134888, -0.08690590411424637, -0.030897855758666992, -0.01917216181755066, 0.03273697942495346, -0.0378396213054657, 0.019738733768463135, -0.04173189401626587], [0.028275057673454285, -0.029802408069372177, 0.07032454758882523, 0.07848691195249557, 0.08059387654066086, -0.026279255747795105, -0.06123483553528786, 0.02905411273241043, -0.03304750472307205, -0.08400650322437286], [0.05045389384031296, 0.025660334154963493, 0.040787797421216965, 0.007870502769947052, -0.07709731161594391, 0.10403141379356384, 0.019099067896604538, 0.07136953622102737, -0.05290410295128822, 0.017518337815999985], [0.08665350824594498, 0.04049228876829147, -0.03142453730106354, -0.06956758350133896, -0.02279573678970337, 0.057011764496564865, 0.06593438237905502, 0.002606843365356326, 0.016284644603729248, 0.05413353443145752], [0.05836138874292374, -0.05563882738351822, 0.044212885200977325, -0.07481927424669266, -0.007713111117482185, -0.06688039004802704, -0.020594587549567223, 0.0701366737484932, -0.1008090078830719, -0.06618446111679077], [-0.02117113769054413, -0.022999534383416176, -0.01232906710356474, -0.024943143129348755, -0.05107274651527405, 0.01240841206163168, -0.04753229394555092, 0.03119158186018467, -0.07019567489624023, -0.0335470549762249], [-0.06392001360654831, -0.03159186989068985, 0.044009171426296234, 0.05734861642122269, 0.015416987240314484, -0.06873596459627151, -0.020443446934223175, -0.0861411914229393, 0.08304094523191452, -0.026833433657884598], [0.04555840045213699, -0.02398832142353058, -0.03613125532865524, 0.01595301181077957, -0.084525927901268, -0.0058785900473594666, -0.06742805987596512, 0.05652876943349838, 0.05005646497011185, 0.002002604305744171], [0.07675477117300034, 0.07716188579797745, 0.0022348538041114807, 0.02424803376197815, 0.05711338669061661, -0.054171349853277206, -0.06026802957057953, 0.06425394862890244, -0.05891687422990799, -0.06459477543830872], [-0.04666910693049431, -0.05857100337743759, -0.04337785020470619, -0.038428183645009995, -0.022118791937828064, 0.07640286535024643, -0.025845803320407867, -0.04161444306373596, -0.06988320499658585, -0.013326823711395264], [-0.06764534115791321, -0.03874381259083748, 0.002142876386642456, 0.012089818716049194, -0.04567227140069008, -0.03407030925154686, -0.024451367557048798, 0.08284715563058853, -0.07200489193201065, -0.08232948184013367], [0.07535035163164139, -0.05916617810726166, -0.08076520264148712, -0.07817208766937256, -0.02623697742819786, -0.03938860446214676, -0.028406254947185516, -0.02881893888115883, -0.06557159125804901, 0.06847768276929855], [0.002162352204322815, -0.04568967968225479, -0.020019732415676117, 0.0733708068728447, -0.03556949272751808, -0.053613193333148956, 0.0817146822810173, -0.07322357594966888, 0.011744074523448944, -0.04917913302779198], [0.06488733738660812, -0.058526381850242615, 0.08447898179292679, 0.08011277765035629, -0.01876240223646164, -0.0038679838180541992, -0.006296247243881226, 0.02268967777490616, -0.017060711979866028, -0.055018238723278046], [0.05442435294389725, -0.0036491230130195618, 0.013709746301174164, -0.03380730375647545, 0.04616153985261917, 0.04339412599802017, 0.011889025568962097, -0.05210565775632858, 0.04110129922628403, -0.0023014619946479797], [-0.0398605652153492, -0.0005381181836128235, -0.06217142194509506, 0.060182295739650726, 0.07569553703069687, -0.057634275406599045, 0.0614415779709816, -0.03289384767413139, 0.07785334438085556, 0.009414918720722198], [0.038561247289180756, -0.05618806928396225, -0.050229791551828384, -0.022597596049308777, 0.08555478602647781, -0.029219377785921097, -0.0054512470960617065, 0.0564965084195137, 0.04800144582986832, -0.014421336352825165], [-0.05274483561515808, -0.024184219539165497, -0.06024637445807457, -0.07291285693645477, -0.0076051875948905945, 0.08102864772081375, -0.004772007465362549, 0.010794408619403839, 0.014870688319206238, -0.08237428963184357], [-0.08308007568120956, 0.061203502118587494, -0.02589452639222145, 0.005090951919555664, 0.06175876408815384, 0.08347740024328232, -0.05693712830543518, -0.030861936509609222, 0.07945271581411362, -0.0828838050365448], [-0.038731250911951065, -0.05078478157520294, 0.07772662490606308, 0.016255170106887817, 0.08683723956346512, -0.029003500938415527, 0.062150247395038605, -0.021002747118473053, 0.028965510427951813, -0.017456024885177612], [0.03446349501609802, -0.004378184676170349, 0.06159467250108719, -0.03579401224851608, 0.08483815938234329, -0.06808965653181076, 0.02152865380048752, 0.0752793624997139, 0.07558218389749527, 0.02258242666721344], [0.002547040581703186, 0.00392516702413559, -0.021081998944282532, 0.0480780228972435, 0.031138725578784943, 0.012912437319755554, 0.03808588534593582, -0.07842601090669632, -0.028542108833789825, 0.004550457000732422], [-0.09311378747224808, 0.02434350922703743, 0.0736251175403595, -0.029339715838432312, -0.10124079883098602, -0.06509242951869965, -0.05772611126303673, 0.09371575713157654, 0.005638389848172665, 0.004476602654904127], [-0.07991644740104675, -0.0073104738257825375, -0.0057605053298175335, 0.03157008811831474, 0.030294427648186684, -0.02571382373571396, 0.08582307398319244, -0.004783283919095993, 0.003018916817381978, 0.08817186206579208], [-0.15477047860622406, -0.09333083778619766, 0.06270770728588104, -0.16670483350753784, -0.023035895079374313, 0.048676468431949615, -0.0015042759478092194, 0.009966256096959114, -0.07743177562952042, 0.09854600578546524], [-0.16621264815330505, -0.15304981172084808, 0.16873246431350708, -0.18305011093616486, -0.1331893801689148, 0.083670474588871, -0.024187808856368065, 0.14633268117904663, -0.01839355006814003, 0.19126972556114197], [-0.07255259901285172, -0.07150498032569885, 0.09988127648830414, -0.09330663084983826, -0.15590278804302216, 0.18545003235340118, -0.10989078134298325, 0.08680713921785355, 0.03331988677382469, 0.1048840582370758], [-0.14470292627811432, -0.00795938540250063, 0.07692200690507889, -0.16592907905578613, -0.046525370329618454, 0.14649708569049835, -0.031874362379312515, 0.13323408365249634, 0.043462030589580536, 0.20758689939975739], [-0.13065098226070404, -0.04117622971534729, 0.04533378779888153, -0.04799101501703262, -0.2160738855600357, 0.07605477422475815, -0.11806654185056686, 0.1107652559876442, -0.12088301032781601, 0.14765720069408417], [-0.27203303575515747, -0.15980622172355652, 0.1747981458902359, -0.27164962887763977, -0.1913037747144699, 0.1593673676252365, -0.0723077729344368, 0.1947350949048996, -0.05018298700451851, 0.3194299042224884], [-0.20609788596630096, -0.09849262982606888, 0.09180113673210144, -0.18693429231643677, -0.304237425327301, 0.14633208513259888, 0.0004471520078368485, 0.18229283392429352, -0.15639708936214447, 0.23240891098976135], [-0.3174589276313782, -0.14966696500778198, 0.12099999189376831, -0.10639612376689911, -0.22220805287361145, 0.19531609117984772, 0.05473208799958229, 0.1248476579785347, -0.10976658016443253, 0.2245282232761383], [-0.19928056001663208, 0.07587417215108871, 0.06623715907335281, -0.0017594910459592938, -0.025297749787569046, 0.04685720428824425, -0.08720178157091141, 0.13257649540901184, 0.0834304466843605, -0.005276715848594904], [-0.08657484501600266, 0.037261124700307846, 0.10735254734754562, -0.1337907910346985, -0.12972094118595123, 0.1057824119925499, 0.082221619784832, 0.15134382247924805, 0.06078309193253517, -0.10113976150751114], [-0.1775262951850891, -0.261546790599823, 0.22929155826568604, -0.00737375533208251, 0.17711205780506134, 0.26743537187576294, 0.2319916933774948, 0.2431250512599945, -0.16906346380710602, -0.0029574267100542784], [-0.17003217339515686, -0.26222819089889526, 0.13884149491786957, -0.05666138976812363, -0.028576869517564774, 0.21439029276371002, 0.18646129965782166, 0.21614140272140503, -0.1221616342663765, -0.027355454862117767], [-0.11493624001741409, -0.13056251406669617, 0.17411579191684723, -0.1621374636888504, -0.14328953623771667, 0.12032020837068558, 0.024189215153455734, 0.18494835495948792, -0.06372078508138657, 0.14417025446891785], [-0.1734137237071991, -0.20952092111110687, 0.20865829288959503, -0.15292640030384064, -0.18569354712963104, 0.22297583520412445, -0.06879466027021408, 0.16062508523464203, -0.06982626765966415, 0.21023881435394287], [-0.12202253192663193, -0.11378571391105652, 0.21115630865097046, -0.200470432639122, -0.235853910446167, 0.20970666408538818, -0.09895919263362885, 0.17516574263572693, -0.02558233216404915, 0.10268277674913406], [-0.12406306713819504, -0.10772502422332764, 0.11130708456039429, -0.1368573009967804, -0.08891982585191727, 0.08810794353485107, -0.049944642931222916, 0.14369064569473267, -0.09126657247543335, 0.1423192173242569], [-0.07305973023176193, -0.046742673963308334, 0.05160989612340927, -0.0696348175406456, -0.12485163658857346, 0.08364440500736237, 0.0919618159532547, 0.19502854347229004, -0.08406597375869751, 0.08522512018680573], [-0.12091764807701111, -0.13716411590576172, 0.1700819730758667, -0.001032293657772243, -0.03293542563915253, 0.11956173926591873, 0.09743676334619522, 0.15917126834392548, -0.16844803094863892, 0.027590371668338776], [0.03730873763561249, 0.07802567631006241, 0.043399877846241, 0.006893642246723175, -0.01934899389743805, 0.011883042752742767, 0.004171013832092285, -0.029616601765155792, 0.010461390018463135, 0.04403967410326004], [0.058207832276821136, -0.022723563015460968, 0.012311019003391266, 0.004269622266292572, 0.05137711018323898, -0.04983998462557793, 0.028588786721229553, 0.08507315069437027, -0.05211191624403, -0.012488849461078644], [0.016957640647888184, 0.08325549215078354, -0.07111353427171707, -0.056703947484493256, 0.03308877348899841, -0.03687926009297371, -0.06368256360292435, 0.0662265196442604, -0.054753176867961884, -0.03337853401899338], [-0.03341979905962944, -0.057900432497262955, -0.017067506909370422, 0.010719753801822662, -0.04844101518392563, -0.060841530561447144, 0.007843531668186188, -0.005950897932052612, -0.016694843769073486, 0.05431618541479111], [-0.03824565187096596, 0.04269077628850937, 0.04062747210264206, -0.07982596009969711, 0.007697790861129761, 0.06144934147596359, -0.010365143418312073, 0.03130486607551575, 0.039542488753795624, -0.039009369909763336], [0.08568181842565536, -0.07707908004522324, 0.001784197986125946, 0.05928731709718704, 0.08191888779401779, 0.06523130089044571, -0.0668736919760704, 0.0722447857260704, -0.024949505925178528, 0.04645291715860367], [0.08194656670093536, -0.003907897509634495, -0.07995961606502533, 0.02635384351015091, 0.06484371423721313, 0.025304432958364487, -0.0748429000377655, 0.06418175995349884, 0.03579596057534218, 0.0331275537610054], [-0.024024922400712967, -0.0003182570217177272, 0.10549847036600113, -0.1079976037144661, 0.006644780281931162, 0.052905358374118805, -0.0014382415683940053, -0.0023303991183638573, -0.00036026816815137863, 0.1376262903213501], [-0.047385815531015396, -0.12265625596046448, 0.07977983355522156, -0.062206562608480453, 0.03876698389649391, 0.12347332388162613, 0.006851627957075834, 0.05826044827699661, -0.12603197991847992, 0.07191973924636841], [-0.055179234594106674, 0.04098368063569069, -0.004956094082444906, 0.009387239813804626, -0.13162341713905334, -0.005143285263329744, -0.10709438472986221, -0.07348679006099701, -0.03886120021343231, 0.06533503532409668], [-0.1364663690328598, -0.020174192264676094, 0.020592499524354935, -0.07591629773378372, -0.06104531139135361, 0.11774234473705292, -0.08103006333112717, 0.04960564523935318, 0.0018718234496191144, 0.04382486268877983], [-0.1582336127758026, -0.0426211953163147, 0.0031952918507158756, -0.08141268044710159, -0.10996939241886139, 0.23285739123821259, -0.09208217263221741, 0.10601197183132172, -0.011333629488945007, 0.25939077138900757], [-0.11320846527814865, -0.12286591529846191, 0.08268927037715912, -0.050275664776563644, -0.16236640512943268, 0.20809102058410645, -0.05292836204171181, 0.193597212433815, 0.08126437664031982, 0.2564436197280884], [-0.25716567039489746, -0.10753240436315536, 0.0950438529253006, -0.17922301590442657, -0.1661594659090042, 0.3101917803287506, -0.17345012724399567, 0.1951548308134079, 0.13004277646541595, 0.14983490109443665], [-0.2230645716190338, -0.11703281849622726, 0.21872085332870483, -0.2632111608982086, -0.19333072006702423, 0.46152666211128235, -0.1675586849451065, 0.30053651332855225, 0.11890174448490143, 0.39074692130088806], [-0.28276577591896057, -0.2924586236476898, 0.3059258759021759, -0.06951414048671722, -0.009499823674559593, 0.40451115369796753, -0.1518433690071106, 0.47693145275115967, 0.04369188845157623, 0.2408696860074997], [-0.4629805088043213, -0.2649800479412079, 0.3016763925552368, -0.1483476459980011, -0.11606686562299728, 0.4526059329509735, 0.016568094491958618, 0.42254164814949036, 0.08465445786714554, 0.12736813724040985], [-0.4345455467700958, -0.22078607976436615, 0.3223402500152588, -0.2011766880750656, -0.23084089159965515, 0.39606773853302, -0.015999456867575645, 0.2821040749549866, 0.17673273384571075, 0.22911062836647034], [-0.31305715441703796, -0.19295275211334229, 0.3985196352005005, 0.10120029002428055, -0.1821155995130539, 0.4253862500190735, -0.12065521627664566, 0.4032566547393799, 0.03572246432304382, 0.15857043862342834], [-0.40607950091362, -0.2101939469575882, 0.2773233950138092, 0.024006962776184082, -0.1772947758436203, 0.4569360017776489, -0.11382891982793808, 0.33588775992393494, 0.1101510226726532, 0.07074951380491257], [-0.3691903352737427, -0.2605713903903961, 0.4613465666770935, 0.025474607944488525, -0.10058237612247467, 0.525428056716919, 0.06894314289093018, 0.2978631854057312, 0.1138991117477417, 0.015743231400847435], [-0.41796332597732544, -0.13263921439647675, 0.3513970971107483, 0.20813442766666412, -0.05502348765730858, 0.4652915894985199, -0.14352279901504517, 0.05480286851525307, 0.22042585909366608, 0.08499017357826233], [-0.3619511127471924, -0.0514763668179512, 0.2468683421611786, 0.23282773792743683, -0.10147417336702347, 0.3730878531932831, -0.25544771552085876, 0.07253751903772354, 0.11433038860559464, 0.10998618602752686], [-0.03789038956165314, -0.07932180166244507, -0.006033781450241804, 0.06665702164173126, -0.10236972570419312, 0.26972219347953796, -0.2720145583152771, 0.11086209118366241, 0.07737032324075699, 0.26146572828292847], [-0.02707088552415371, -0.11985620856285095, 0.11878850311040878, -0.0018773517804220319, -0.2287912219762802, 0.2004709392786026, -0.2995385229587555, 0.073304183781147, 0.0036801761016249657, 0.2677764594554901], [-0.11912672221660614, 0.0174822099506855, 0.15403054654598236, 0.007416085340082645, -0.26045408844947815, 0.20087748765945435, -0.05090300738811493, 0.0400664322078228, 0.07624322921037674, 0.2277887612581253], [-0.14106599986553192, -0.025400349870324135, 0.038497306406497955, 0.06039318069815636, -0.12678013741970062, 0.13632838428020477, -0.07611056417226791, 0.079925037920475, 0.19202636182308197, 0.23243892192840576], [-0.11083583533763885, -0.14084622263908386, 0.1450611799955368, -0.13159604370594025, -0.26033031940460205, 0.21467123925685883, -0.01059284619987011, 0.132071390748024, -0.00024040183052420616, 0.19216759502887726], [-0.16557671129703522, -0.013393532484769821, 0.007310132030397654, -0.002660115249454975, -0.05501632019877434, 0.07805953919887543, 0.02058444544672966, 0.0921383872628212, -0.014661419205367565, 0.01698215678334236], [0.015664784237742424, 0.005291911773383617, -0.008813074789941311, -0.08509532362222672, -0.046071477234363556, -0.016798274591565132, 0.003473535180091858, 0.0967821404337883, 0.042403485625982285, -0.060425903648138046], [-0.04020804911851883, 0.08523669093847275, 0.07872659713029861, -0.04267171397805214, -0.0013394877314567566, -0.06828930974006653, -0.008738711476325989, 0.05516422539949417, -0.024010412395000458, -0.06209366023540497], [-0.08237196505069733, 0.06693582981824875, 0.02905956655740738, 0.04375127702951431, 0.045378752052783966, -0.03087037429213524, 0.012618482112884521, 0.022401884198188782, 0.06388450413942337, 0.020596005022525787], [0.055366091430187225, 0.0741565153002739, -0.005282089114189148, -0.0809120163321495, -0.021493256092071533, -0.0036235451698303223, -0.04927658289670944, 0.024750106036663055, 0.04804397374391556, -0.004650704562664032], [0.021142974495887756, -0.07238937169313431, 0.04960808902978897, -0.020475469529628754, -0.005405902862548828, 0.060352109372615814, -0.059627093374729156, -0.0070252493023872375, -0.046503446996212006, 0.06559915095567703], [0.03906235843896866, 0.14348924160003662, -0.06834138184785843, -0.045541878789663315, 0.053713563829660416, -0.14396347105503082, 0.14935502409934998, -0.07261905074119568, -0.017721228301525116, -0.09217505156993866], [0.0027382581029087305, -0.13151778280735016, 0.09819803386926651, -0.15854406356811523, -0.06916319578886032, 0.05674412101507187, 0.13594719767570496, 0.04431148245930672, -0.08962791413068771, 0.1889406442642212], [-0.023542320355772972, -0.02997729554772377, -0.07612763345241547, -0.024644089862704277, 0.03726498782634735, 0.03177362680435181, -0.02628893218934536, 0.06822503358125687, 0.05448872223496437, 0.09490740299224854], [-0.05351582542061806, 0.034824538975954056, -0.08962876349687576, 0.05914205312728882, -0.08541779220104218, 0.180842787027359, 0.009509570896625519, -0.18846991658210754, -0.04455462470650673, 0.07906198501586914], [-0.20028816163539886, 0.012256616726517677, -0.009279499761760235, -0.20938609540462494, -0.24389244616031647, 0.1568652093410492, -0.1269751340150833, -0.03492344170808792, 0.06460287421941757, 0.10865499824285507], [-0.3649044334888458, -0.04218319430947304, 0.17472480237483978, -0.19330881536006927, -0.12172349542379379, 0.3979087173938751, -0.06368450820446014, 0.12831644713878632, 0.006720670498907566, 0.3003636598587036], [-0.26415690779685974, -0.05553722381591797, 0.06988158822059631, -0.029669158160686493, -0.06383740156888962, 0.4712047278881073, -0.14300712943077087, 0.14165829122066498, -0.012146840803325176, 0.18245725333690643], [-0.2842617332935333, -0.18156254291534424, 0.06571192294359207, -0.11947053670883179, 0.11927977204322815, 0.42036452889442444, -0.0389140248298645, 0.058676790446043015, 0.0034893909469246864, 0.08612193167209625], [-0.3265800476074219, -0.12907862663269043, 0.19257964193820953, -0.07414386421442032, 0.025323092937469482, 0.5801692008972168, 0.07195653021335602, 0.03386855870485306, -0.05077313631772995, 0.16742393374443054], [-0.14600013196468353, -0.15931938588619232, 0.18491895496845245, -0.04108477383852005, 0.13479170203208923, 0.6522703170776367, 0.04324589669704437, 0.059157513082027435, -0.15542003512382507, 0.2609671950340271], [-0.096270851790905, -0.16446852684020996, 0.06045107543468475, -0.20293982326984406, 0.06585913151502609, 0.6779776811599731, 0.20491069555282593, 0.07424376904964447, -0.21097178757190704, 0.21300864219665527], [-0.24048535525798798, -0.12102712690830231, 0.05165207013487816, -0.24203185737133026, -0.0009051162633113563, 0.765156090259552, 0.14954599738121033, 0.07935953140258789, -0.26868629455566406, 0.2530041038990021], [-0.18798215687274933, -0.07644008845090866, -0.05100426450371742, -0.1901695281267166, -0.07418520003557205, 0.7191119194030762, 0.1367366909980774, 0.05671427771449089, -0.13476714491844177, 0.17882217466831207], [-0.019233232364058495, -0.04227331653237343, 0.04990155249834061, -0.2814846634864807, -0.1372833549976349, 0.5689250230789185, 0.10201619565486908, 0.01349669974297285, -0.12518548965454102, 0.24214518070220947], [0.024650735780596733, 0.017818232998251915, -0.09880758076906204, -0.09345698356628418, -0.05175403878092766, 0.5084964632987976, -0.041920069605112076, 0.1083589717745781, -0.17462792992591858, 0.1495237797498703], [0.054891448467969894, 0.04908772185444832, -0.027254916727542877, -0.1100338026881218, -0.023719243705272675, 0.4124315083026886, -0.11252598464488983, -0.009113309904932976, -0.08452551066875458, 0.2360154390335083], [-0.088934525847435, 0.14390413463115692, -0.0789630264043808, -0.05820197984576225, -0.04045037925243378, 0.4097256362438202, -0.2549746036529541, -0.21696244180202484, 0.11041545867919922, 0.09530847519636154], [-0.09463592618703842, 0.10553570091724396, -0.07656630873680115, 0.03268720209598541, -0.1407604217529297, 0.21385309100151062, -0.3272761404514313, -0.06353794038295746, 0.19444310665130615, 0.10960426181554794], [-0.13394558429718018, 0.028841538354754448, -0.0013899689074605703, 0.04106251522898674, -0.175882026553154, 0.20004671812057495, -0.31011706590652466, 0.012145781889557838, 0.14708654582500458, 0.16834193468093872], [-0.20752713084220886, 0.05280518904328346, 0.0022676605731248856, -0.025012508034706116, -0.15757544338703156, 0.22206754982471466, -0.11137326806783676, 0.06453944742679596, 0.26191651821136475, 0.06362359970808029], [-0.13577990233898163, 0.09609274566173553, 0.04673754796385765, 0.03334730491042137, -0.31372806429862976, 0.18515925109386444, -0.2011737823486328, -0.06916951388120651, 0.24892525374889374, 0.1761605441570282], [-0.26661717891693115, -0.1410597413778305, 0.14640463888645172, 0.11145378649234772, -0.24613021314144135, 0.14003676176071167, -0.1234498918056488, -0.020851880311965942, 0.2660544514656067, 0.13169477880001068], [-0.12135862559080124, -0.1693655103445053, 0.14493177831172943, 0.18697217106819153, -0.21016377210617065, 0.1406807154417038, -0.15033382177352905, -0.024959057569503784, 0.07638832181692123, 0.13120439648628235], [-0.006945169996470213, -0.09199618548154831, 0.1486062854528427, 0.02428220957517624, -0.050954777747392654, 0.02655671164393425, 0.037740133702754974, -0.12938176095485687, -0.025524059310555458, -0.02589845471084118], [0.11758142709732056, -0.06845525652170181, 0.04335714504122734, 0.0230986550450325, -0.038841139525175095, 0.16254881024360657, -0.023935286328196526, -0.033251259475946426, -0.13990479707717896, -0.046913839876651764], [0.06503448635339737, 0.06485345214605331, -0.048672229051589966, 0.06504561752080917, 0.024277128279209137, -0.055391982197761536, -0.06060658395290375, -0.006678678095340729, 0.05728264898061752, -0.05459539592266083], [0.021812550723552704, 0.006610594689846039, 0.03911351412534714, -0.005546048283576965, 0.04631824046373367, -0.04220857843756676, 0.018634982407093048, 0.047377921640872955, 0.037069953978061676, 0.036918990314006805], [0.07981419563293457, -0.05490690842270851, -0.026325343176722527, -0.06726793199777603, 0.04580426961183548, 0.05083458498120308, -0.03615709766745567, -0.07351195812225342, -0.04284518212080002, 0.06449393928050995], [0.012880929745733738, 0.12786747515201569, -0.03422221541404724, -0.10060037672519684, 0.05724356696009636, -0.011055844835937023, 0.16974228620529175, -0.012089806608855724, 0.09892963618040085, -0.20021753013134003], [-0.10506834834814072, 0.0842488631606102, -0.018928170204162598, -0.06265707314014435, 0.08845839649438858, 0.016075529158115387, 0.1639692634344101, -0.04541521891951561, -0.1351107656955719, 0.02454422041773796], [0.1606069654226303, 0.13373461365699768, -0.16806477308273315, 0.023714054375886917, 0.11401710659265518, 0.004247104283422232, 0.15568366646766663, -0.26447832584381104, 0.0104000773280859, -0.028377851471304893], [-0.019746262580156326, 0.1170816421508789, -0.0931302085518837, -0.02446318417787552, 0.013938702642917633, 0.2024393528699875, -0.018429061397910118, -0.16026072204113007, -0.010550224222242832, 0.03973643481731415], [-0.15053141117095947, 0.062302105128765106, 0.047626640647649765, -0.06778591126203537, 0.04763786122202873, 0.39453133940696716, -0.03190753236413002, -0.14120478928089142, -0.033174075186252594, 0.08198036253452301], [-0.13424113392829895, -0.1284865289926529, 0.036705099046230316, -0.021873118355870247, 0.0547979511320591, 0.42566347122192383, -0.040670476853847504, -0.1514802724123001, -0.025131959468126297, 0.14871059358119965], [-0.167612686753273, 0.002640807069838047, 0.12546196579933167, 0.04241064563393593, 0.23578959703445435, 0.5231299996376038, 0.12894459068775177, -0.24031245708465576, -0.12441806495189667, 0.12557755410671234], [-0.28988656401634216, 0.0622720904648304, 0.15956485271453857, 0.017371326684951782, 0.18425880372524261, 0.3342573344707489, 0.12363415211439133, -0.1903894543647766, -0.21241767704486847, 0.11317529529333115], [-0.1983565092086792, 0.02615402080118656, 0.17018845677375793, -0.18122348189353943, 0.1621042788028717, 0.32368984818458557, 0.2538248300552368, 0.0008014357299543917, -0.1898123174905777, 0.1093146950006485], [-0.08620163053274155, 0.05745984613895416, 0.05469449236989021, -0.21860456466674805, 0.07749943435192108, 0.27788805961608887, 0.1270102560520172, -0.013018553145229816, -0.1987076699733734, -0.007870280183851719], [-0.19613201916217804, 0.09859812259674072, 0.1122022345662117, -0.12303786724805832, 0.11994200944900513, 0.21101155877113342, 0.19894224405288696, -0.03818119689822197, -0.3095230758190155, 0.044420287013053894], [-0.1593911200761795, 0.2020726054906845, 0.043037910014390945, -0.10462407022714615, 0.01528234127908945, 0.25918689370155334, 0.1848725825548172, -0.008676472119987011, -0.1865655779838562, -0.06523248553276062], [-0.08240742236375809, 0.1302362084388733, 0.09813452512025833, -0.010149813257157803, 0.015546721406280994, 0.2546376883983612, 0.2764705717563629, 0.05414838716387749, -0.2082694172859192, -0.08972223103046417], [0.016148211434483528, 0.21133802831172943, 0.0662006288766861, -0.1340632140636444, -0.06432339549064636, 0.25132715702056885, 0.1372935175895691, 0.09957567602396011, -0.22834999859333038, -0.20562922954559326], [0.028094207867980003, 0.11563057452440262, -0.02812144346535206, 0.030031876638531685, -0.1721554696559906, 0.30635181069374084, 0.059810783714056015, 0.07520847767591476, 0.029343632981181145, -0.07875808328390121], [0.03628738224506378, 0.13431717455387115, 0.10209649801254272, 0.05077952519059181, -0.009507989510893822, 0.3154463768005371, -0.048180047422647476, 0.14453183114528656, 0.06748709827661514, 0.019386567175388336], [0.061340007930994034, 0.10413087904453278, -0.010334955528378487, -0.05043686553835869, 0.015272056683897972, 0.21822771430015564, -0.06579919904470444, -0.10477759689092636, 0.03424679487943649, 0.050441138446331024], [-0.09343283623456955, 0.19215168058872223, -0.09261392802000046, 0.02318759262561798, 0.12882159650325775, 0.16517436504364014, -0.17189612984657288, -0.1193845123052597, 0.18356099724769592, 0.11340069770812988], [-0.14729878306388855, 0.04656754806637764, 0.08245234936475754, 0.0800437480211258, -0.022675789892673492, 0.14142432808876038, -0.21732623875141144, -0.15838217735290527, 0.2803926169872284, 0.07579182833433151], [-0.05982140079140663, 0.09103237092494965, -0.055073369294404984, -0.04865650087594986, -0.21276859939098358, 0.10819704830646515, -0.20965644717216492, -0.05994851514697075, 0.47339850664138794, 0.1106463149189949], [-0.041265785694122314, 0.12422105669975281, -0.046035461127758026, -0.10680147260427475, -0.46567538380622864, 0.06667625904083252, -0.35395240783691406, -0.04695206880569458, 0.3953992426395416, 0.2614297866821289], [-0.05735810846090317, 0.006417988333851099, -0.13644331693649292, 0.03612447530031204, -0.3541591763496399, -0.005133973900228739, -0.38063496351242065, 0.06511899083852768, 0.5003059506416321, 0.1261318176984787], [0.08290106058120728, -0.03533785417675972, -0.20262223482131958, 0.016653982922434807, -0.1224554106593132, 0.1735791712999344, -0.3379388153553009, -0.1548023670911789, 0.23158152401447296, -0.007067726459354162], [0.11517977714538574, -0.06603509932756424, 0.018377812579274178, -0.050078265368938446, 0.07124921679496765, 0.22550836205482483, -0.05547241121530533, 0.10556136816740036, -0.2011977583169937, 0.07680258899927139], [0.053389377892017365, 0.008592883124947548, 0.1486235409975052, -0.09089601039886475, -0.0434381365776062, -0.10804479569196701, 0.1863691508769989, 0.07296238839626312, -0.13187794387340546, -0.03237450495362282], [-0.0647035539150238, -0.1547011435031891, 0.09389588981866837, -0.08858004212379456, -0.04930222034454346, -0.08760882914066315, 0.08972278237342834, 0.05672458931803703, -0.13324469327926636, -0.06225268542766571], [-0.08170945197343826, -0.05178126320242882, -0.08349157869815826, -0.03328924998641014, 0.08264533430337906, -0.006635479629039764, -0.01165010780096054, -0.046079423278570175, 0.023542098701000214, -0.014993853867053986], [0.06821989268064499, -0.03500179946422577, 0.03552791476249695, -0.06339453905820847, 0.011252589523792267, 0.00831553339958191, -0.006557449698448181, 0.0739167258143425, 0.020812608301639557, 0.06475038081407547], [-0.1655626893043518, 0.12121614068746567, -0.10967642068862915, -0.14499738812446594, 0.08761367201805115, 0.030498292297124863, 0.13680924475193024, -0.08604438602924347, 0.010694824159145355, -0.16226541996002197], [-0.09284429252147675, 0.04152948409318924, -0.07820122689008713, -0.08790137618780136, 0.13870671391487122, 0.08051970601081848, 0.1801954209804535, -0.09459330886602402, -0.08082495629787445, -0.13291752338409424], [0.009228539653122425, 0.2556348145008087, -0.11343231797218323, 0.07245916873216629, 0.18118388950824738, 0.1283903867006302, 0.16503573954105377, -0.33183860778808594, -0.24972930550575256, -0.2740156054496765], [-0.03640139847993851, 0.17844730615615845, 0.00630697887390852, -0.01943785883486271, 0.1638813018798828, 0.3285818099975586, 0.05084783211350441, -0.3339405655860901, -0.177198588848114, -0.14512065052986145], [-0.05178802087903023, -0.003857263596728444, -0.01691257208585739, 0.05575857311487198, 0.22744958102703094, 0.2890802025794983, 0.06867998093366623, -0.3255327641963959, -0.05521487817168236, -0.057056624442338943], [-0.01631763018667698, -0.04106823727488518, 0.08820630609989166, -0.018361054360866547, 0.21853524446487427, 0.25725647807121277, 0.03467528894543648, -0.2069125473499298, -0.21757006645202637, 0.07692958414554596], [-0.11994300037622452, -0.042794518172740936, 0.04672427102923393, 0.12981444597244263, 0.14181417226791382, 0.30626380443573, 0.03731410950422287, -0.11335122585296631, -0.17030122876167297, -0.02234928123652935], [-0.028982801362872124, 0.09188245236873627, 0.06924863159656525, 0.06081881374120712, 0.06209288910031319, 0.20217953622341156, -0.024620547890663147, -0.09499070048332214, -0.12020561844110489, -0.05730520561337471], [-0.0800955668091774, 0.02777065709233284, 0.09043315052986145, 0.015251515433192253, 0.04650019109249115, 0.34021687507629395, 0.09127131849527359, 0.046829093247652054, -0.17085710167884827, 0.026688111945986748], [0.022304406389594078, 0.1327839344739914, 0.18801990151405334, -0.024823160842061043, 0.11098775267601013, 0.20571979880332947, 0.06894849985837936, 0.04809124767780304, -0.23383766412734985, -0.18437603116035461], [-0.07544358819723129, 0.15574246644973755, 0.24589908123016357, 0.03981524333357811, 0.05365811660885811, 0.09440794587135315, 0.19604475796222687, 0.15375123918056488, -0.27386707067489624, -0.05408678948879242], [-0.06925718486309052, 0.07343009859323502, 0.12862057983875275, 0.0933290645480156, 0.17293550074100494, 0.17874591052532196, 0.18124499917030334, 0.2405596673488617, -0.2687285244464874, -0.11943650245666504], [-0.027912093326449394, 0.07877621799707413, 0.20828278362751007, 0.14432188868522644, -0.017400499433279037, 0.1672651320695877, 0.13506604731082916, 0.2582852244377136, -0.13093747198581696, -0.13620832562446594], [0.00958085898309946, 0.17355066537857056, 0.12695011496543884, 0.1734294444322586, 0.03394109010696411, 0.26085472106933594, 0.06098000332713127, 0.21976304054260254, -0.2317100614309311, -0.14627820253372192], [0.11121083796024323, 0.14727327227592468, 0.2638639211654663, 0.14423324167728424, 0.06352424621582031, 0.2774032652378082, 0.05244768410921097, 0.2469273805618286, -0.17371132969856262, -0.20524565875530243], [0.07757619023323059, 0.04479542747139931, 0.26372766494750977, 0.23392225801944733, -0.0017503415001556277, 0.25066304206848145, -0.13216492533683777, 0.2721022069454193, -0.18565478920936584, -0.07836338877677917], [0.08032377064228058, 0.13909980654716492, 0.15138620138168335, 0.14155422151088715, 0.011504814960062504, 0.14923188090324402, -0.23138555884361267, 0.15599098801612854, -0.12815146148204803, 0.09157764166593552], [0.10344152897596359, 0.18180933594703674, 0.13384443521499634, 0.07561083883047104, 0.01777256652712822, 0.20661519467830658, -0.1729399710893631, 0.06380848586559296, 0.07208287715911865, 0.11587218195199966], [0.09348317235708237, 0.04104844853281975, 0.1066863164305687, -0.021474918350577354, -0.13456600904464722, 0.008498098701238632, -0.3243670165538788, 0.08068928867578506, 0.021917952224612236, 0.17090249061584473], [0.038908373564481735, 0.06624811887741089, 0.0020489057060331106, 0.013922563754022121, -0.15626700222492218, 0.056782566010951996, -0.2379647046327591, -0.02440764382481575, 0.269619882106781, 0.04071895033121109], [0.09524630755186081, -0.03973172605037689, -0.119268998503685, -0.10846507549285889, -0.2898080348968506, -0.06743869930505753, -0.36681291460990906, -0.011358977295458317, 0.32888203859329224, -0.018170712515711784], [0.26577523350715637, 0.22502246499061584, -0.23840557038784027, 0.07158630341291428, -0.36339280009269714, -0.08055742084980011, -0.4709458351135254, -0.10843389481306076, 0.4428008794784546, 0.005670607555657625], [0.17822283506393433, 0.1820787936449051, -0.25474971532821655, -0.12286766618490219, -0.14635469019412994, 0.0765867829322815, -0.2036171406507492, -0.10707295686006546, 0.3073418140411377, -0.1623929738998413], [0.2202199399471283, 0.03199557960033417, -0.09685473889112473, -0.021856632083654404, -0.022761667147278786, 0.19672523438930511, 0.013349814340472221, 0.22886978089809418, -0.005099538713693619, -0.1307602971792221], [0.07949090003967285, 0.18208779394626617, -0.10795894265174866, -0.15381182730197906, -0.06457947939634323, 0.03920575976371765, -0.07651875168085098, 0.13321170210838318, -0.10767700523138046, -0.11387892067432404], [0.013041789643466473, 0.08446315675973892, -0.0988665521144867, -0.0699058473110199, -0.06740400195121765, 0.15452386438846588, 0.0026175822131335735, -0.046064343303442, 0.027580391615629196, -0.14297568798065186], [0.04007335752248764, 0.08222896605730057, 0.08350204676389694, -0.08262073248624802, -0.058508723974227905, -0.016396746039390564, 0.0406169667840004, -0.04945453256368637, -0.08198454231023788, 0.001737065613269806], [0.03813230246305466, 0.005366588942706585, -0.10472850501537323, -0.10365179926156998, 0.018148209899663925, 0.06984740495681763, -0.006499788258224726, -0.08105845004320145, 0.033076271414756775, -0.10448282212018967], [-0.020766058936715126, 0.05472616106271744, 0.04167691245675087, -0.04579474776983261, 0.09925319254398346, 0.07254164665937424, 0.047379959374666214, 0.02855374664068222, -0.06578567624092102, -0.06941202282905579], [-0.08576952666044235, 0.013008983805775642, -0.1375206857919693, 0.021755201742053032, 0.21763551235198975, 0.18087686598300934, 0.2783472537994385, -0.32612451910972595, -0.09137489646673203, -0.15112030506134033], [0.051056649535894394, 0.15263397991657257, -0.19549672305583954, -0.019772209227085114, 0.2942364811897278, 0.166409432888031, 0.17994412779808044, -0.3494986891746521, -0.14489038288593292, -0.37184393405914307], [0.13162872195243835, 0.047736331820487976, -0.10364348441362381, -0.025039823725819588, 0.148581862449646, 0.2641547918319702, 0.26839786767959595, -0.47794049978256226, -0.17135190963745117, -0.14139287173748016], [0.09257986396551132, 0.050016146153211594, 0.024026107043027878, 0.15085358917713165, 0.020217929035425186, 0.23584984242916107, 0.17914439737796783, -0.2560715973377228, -0.10516722500324249, -0.032524753361940384], [0.0882963165640831, -0.07858320325613022, 0.08677759766578674, 0.1567419171333313, -0.046176571398973465, 0.1577351689338684, 0.1801186352968216, -0.11154336482286453, -0.061521440744400024, -0.014263974502682686], [0.24194838106632233, -0.10734441131353378, 0.1291944682598114, 0.12956881523132324, 0.10938460379838943, 0.10400457680225372, 0.2171715348958969, -0.1193513348698616, -0.05418993905186653, 0.03352891281247139], [0.18961982429027557, -0.12291677296161652, 0.04151599854230881, 0.09432338923215866, 0.05867666378617287, 0.14255574345588684, 0.2481960654258728, -0.10307278484106064, -0.07270636409521103, -0.09540779888629913], [0.20615963637828827, -0.017708636820316315, 0.02677658572793007, -0.05683019012212753, 0.06996424496173859, 0.14868608117103577, 0.14855901896953583, 0.04119409620761871, -0.04878518357872963, -0.044184356927871704], [0.20166786015033722, 0.08378265798091888, -0.0129486583173275, -0.09971002489328384, 0.16918765008449554, 0.029772695153951645, 0.2669767737388611, 0.10592808574438095, 0.05056983605027199, 0.04550261050462723], [0.07079675048589706, 0.047299981117248535, 0.08606073260307312, -0.10316533595323563, 0.27519190311431885, 0.012720329686999321, 0.18084432184696198, 0.20832359790802002, -0.07556923478841782, 0.03598378971219063], [-0.017396757379174232, 0.10196201503276825, 0.11720301955938339, -0.09646987915039062, 0.3549082577228546, 0.11655675619840622, 0.2394670844078064, 0.23402559757232666, -0.10614439845085144, 0.21121294796466827], [-0.08380569517612457, 0.1590702086687088, 0.14488434791564941, -0.12628665566444397, 0.37332919239997864, 0.0322079211473465, 0.17495714128017426, 0.26772668957710266, -0.12340491265058517, 0.22002488374710083], [-0.04630523920059204, 0.21639730036258698, 0.07381001114845276, 0.018093924969434738, 0.39355018734931946, 0.06695082783699036, 0.19848336279392242, 0.32032310962677, -0.07364367693662643, 0.208176389336586], [0.011061383411288261, 0.14104211330413818, 0.03401706740260124, 0.010700203478336334, 0.29608064889907837, 0.05997847765684128, 0.25668248534202576, 0.31755560636520386, -0.147370845079422, 0.18367289006710052], [0.14589527249336243, 0.13160429894924164, 0.1300877183675766, -0.02273290604352951, 0.20939500629901886, 0.04398505017161369, 0.16048242151737213, 0.2836047112941742, -0.07153738290071487, 0.25874456763267517], [0.17584025859832764, 0.1253472864627838, -0.022170156240463257, -0.03645860403776169, 0.2466880828142166, 0.002742235781624913, 0.13026438653469086, 0.19895417988300323, -0.09600676596164703, 0.20438992977142334], [0.1583908051252365, 0.0788184180855751, 0.13659758865833282, -0.0041509512811899185, 0.15849415957927704, 0.029933910816907883, -0.09826043993234634, 0.16374662518501282, -0.05886024236679077, 0.06697914004325867], [0.18858088552951813, 0.0066731395199894905, 0.012701256200671196, -0.037836674600839615, 0.020279929041862488, -0.03767455741763115, -0.012712574563920498, 0.18743936717510223, 0.0016896805027499795, 0.018949106335639954], [0.23513711988925934, -0.015749981626868248, 0.08271782100200653, 0.013405905105173588, -0.054848819971084595, -0.07057007402181625, -0.10321765393018723, 0.1630290001630783, 0.039387792348861694, -0.08098143339157104], [0.34883567690849304, -0.025731444358825684, -0.027459176257252693, 0.14305995404720306, -0.2626575529575348, -0.031852416694164276, -0.2977953255176544, 0.13171155750751495, 0.048823121935129166, -0.2058832198381424], [0.40253907442092896, 0.12143109738826752, -0.09515684098005295, 0.07973910868167877, -0.26136741042137146, -0.15798921883106232, -0.4487113356590271, 0.0555625781416893, 0.15905342996120453, -0.34919726848602295], [0.517368733882904, 0.26316389441490173, -0.22675776481628418, -0.2176065593957901, -0.20108671486377716, 0.15577763319015503, -0.23992063105106354, 0.30007582902908325, 0.07691338658332825, -0.5018975138664246], [0.5433550477027893, 0.33849868178367615, -0.15219761431217194, -0.2992994785308838, 0.023194177076220512, 0.17355506122112274, 0.0210687555372715, 0.15919287502765656, -0.12285199016332626, -0.4758615493774414], [0.38083088397979736, 0.21630053222179413, -0.11536062508821487, -0.3307621479034424, -0.038241226226091385, 0.1928286999464035, -0.028521424159407616, 0.13857506215572357, -0.03953658044338226, -0.17401668429374695], [0.24354715645313263, 0.16237030923366547, -0.10854260623455048, -0.11019374430179596, 0.007302824407815933, 0.062877357006073, -0.06059052422642708, 0.11475209146738052, 0.0834243893623352, -0.07052521407604218], [0.05759464204311371, -0.043807901442050934, 0.03574186936020851, -0.0027076180558651686, 0.04298647865653038, -0.05492670089006424, -0.05612248554825783, -0.08036807924509048, -0.0029043068643659353, 0.04795379564166069], [0.1835297793149948, -0.01724662445485592, -0.2054004818201065, -0.0030380417592823505, -0.04595314711332321, -0.0450950488448143, 0.2517901062965393, -0.15743987262248993, -0.04194357991218567, -0.04993886500597], [0.026272960007190704, -0.09865935891866684, 0.0822315588593483, 0.12456727027893066, 0.09807857871055603, 0.09647051244974136, 0.11749987304210663, 0.04491583630442619, -0.05550752207636833, -0.06668739020824432], [0.1744210422039032, -0.1408090889453888, -0.2207525223493576, 0.02662203647196293, 0.1238212063908577, 0.146148219704628, 0.4099541902542114, -0.29818204045295715, -0.12234806269407272, -0.20836149156093597], [0.09158548712730408, -0.03706001862883568, -0.09260471165180206, 0.055854495614767075, 0.28034481406211853, 0.30904731154441833, 0.44722864031791687, -0.5257672667503357, -0.20066170394420624, -0.43884965777397156], [0.2784200608730316, -0.11978364735841751, -0.19116434454917908, 0.08330171555280685, 0.09212138503789902, 0.18589885532855988, 0.44783511757850647, -0.43101394176483154, -0.0999942496418953, -0.2312833070755005], [0.3291604518890381, -0.1392299234867096, 0.007568148896098137, 0.21560876071453094, -0.032659098505973816, 0.23686541616916656, 0.3538171947002411, -0.17103472352027893, -0.15783262252807617, -0.12730832397937775], [0.24072891473770142, -0.016944514587521553, 0.04916144907474518, 0.2996986210346222, -0.12164652347564697, 0.07786750048398972, 0.1463736742734909, -0.1489173173904419, 0.003765587229281664, -0.09012950211763382], [0.36701056361198425, -0.0987124815583229, 0.06299255043268204, 0.1306217908859253, -0.03665400668978691, 0.16077226400375366, 0.2819770574569702, 0.03547674044966698, 0.009456606581807137, -0.11217422783374786], [0.37522634863853455, -0.09461584687232971, 0.09673120826482773, 0.15135717391967773, 0.08942465484142303, 0.12976589798927307, 0.20716385543346405, -0.008783889934420586, -0.013769317418336868, -0.06628686934709549], [0.20897671580314636, -0.05822311341762543, -0.03675813227891922, 0.01584239862859249, 0.16195273399353027, 0.13601531088352203, 0.3073735535144806, 0.11949875950813293, 0.010541340336203575, 0.05412323772907257], [0.27488401532173157, -0.06232567876577377, 0.002852985868230462, -0.06848116964101791, 0.1683637499809265, 0.04002230241894722, 0.27670395374298096, 0.2244187295436859, 0.1446111500263214, 0.11848460137844086], [0.15798231959342957, -0.04450018331408501, -0.10658904910087585, -0.22376661002635956, 0.3431750237941742, 0.023481545969843864, 0.2331673800945282, 0.1574498414993286, 0.06984078139066696, 0.19267061352729797], [0.056722842156887054, 0.05137180909514427, -0.010138102807104588, -0.19773724675178528, 0.4220348298549652, -0.01468650996685028, 0.20822200179100037, 0.24226246774196625, 0.003763049840927124, 0.22739112377166748], [-0.16121754050254822, 0.1326121985912323, 0.03942352160811424, -0.19452187418937683, 0.5385392308235168, 0.03786852955818176, 0.3383644223213196, 0.29942911863327026, 0.12851248681545258, 0.3987773656845093], [-0.06672664731740952, 0.09719156473875046, 0.08405798673629761, -0.18388746678829193, 0.4251561462879181, -0.11801743507385254, 0.3509828448295593, 0.25774845480918884, 0.06058556213974953, 0.47003427147865295], [-0.05375492572784424, 0.08923905342817307, 0.04227812588214874, -0.09010293334722519, 0.35459476709365845, -0.018445273861289024, 0.2788543701171875, 0.2819705009460449, 0.025117242708802223, 0.45214757323265076], [0.23148199915885925, 0.047204941511154175, -0.14114117622375488, -0.05185279995203018, 0.32762840390205383, -0.12906217575073242, 0.1830790489912033, 0.09101491421461105, -0.0021433020010590553, 0.2042723298072815], [0.17270134389400482, 0.08118904381990433, -0.08199749886989594, -0.09089475870132446, 0.1863332986831665, -0.14158938825130463, 0.1785493642091751, 0.238075390458107, -0.007397140841931105, 0.12454161792993546], [0.19010411202907562, 0.01087324321269989, -0.06461226940155029, -0.21038687229156494, 0.2166992574930191, -0.03120419941842556, 0.10977306216955185, 0.18274720013141632, 0.05095938220620155, 0.03772851452231407], [0.22492796182632446, 0.03724685311317444, -0.052808236330747604, -0.2419854700565338, 0.0699649527668953, -0.12579825520515442, 0.06755105406045914, 0.14208950102329254, -0.004131995141506195, -0.11351287364959717], [0.2901541590690613, 0.0035059545189142227, -0.02946764975786209, -0.08135711401700974, 0.06801867485046387, -0.13408330082893372, -0.0884384885430336, 0.22189444303512573, 0.13560286164283752, -0.09417214244604111], [0.38280779123306274, -0.06782896816730499, 0.04300275072455406, 0.0925479382276535, -0.12423364818096161, -0.18159174919128418, -0.20441028475761414, 0.1236448734998703, 0.13011959195137024, -0.23657527565956116], [0.5991367101669312, -0.02154117450118065, -0.07912304252386093, 0.14392633736133575, -0.3032153248786926, -0.198602557182312, -0.3610757291316986, 0.31008562445640564, 0.07763475924730301, -0.3496398627758026], [0.6317876577377319, 0.03414814919233322, -0.13743719458580017, -0.16951707005500793, -0.454378217458725, 0.1279849112033844, -0.38081979751586914, 0.3626366853713989, 0.17476168274879456, -0.49446162581443787], [0.6744456887245178, 0.3451315462589264, -0.3153182864189148, -0.22218813002109528, -0.006384941749274731, 0.29151976108551025, -0.2231549322605133, 0.17786577343940735, -0.03420393541455269, -0.48166748881340027], [0.2980028986930847, 0.3832835853099823, -0.12776009738445282, -0.05345728620886803, -0.06858687102794647, 0.11965929716825485, 0.08622074872255325, 0.014257458038628101, -0.005894104950129986, -0.2791447937488556], [0.1969834417104721, 0.03686037287116051, -0.07465516775846481, -0.30650708079338074, 0.004425575956702232, 0.06313734501600266, -0.09664405882358551, 0.0929640606045723, -0.06350605934858322, -0.2086530178785324], [0.002131339395418763, 0.11032889783382416, 0.0444551445543766, 0.0035421059001237154, 0.04399113357067108, 0.07631106674671173, -0.003323049284517765, 0.06394477933645248, 5.685713767888956e-05, 0.0008726296946406364], [0.11690479516983032, -0.19420936703681946, 0.09802844375371933, 0.04421769455075264, -0.027910545468330383, 0.08553282916545868, 0.07287424057722092, -0.11867185682058334, 0.02073005586862564, 0.008659036830067635], [0.14664359390735626, -0.23474569618701935, 0.029221687465906143, 0.21647325158119202, -0.09757384657859802, 0.053673792630434036, 0.018227234482765198, -0.11408256739377975, -0.020050855353474617, -0.08607520163059235], [0.2075524777173996, 0.0019431922119110823, -0.10447225719690323, 0.010627176612615585, 0.03397790715098381, 0.09429032355546951, 0.26581650972366333, -0.2565777897834778, -0.19234365224838257, -0.38305482268333435], [0.062318526208400726, -0.08365365117788315, -0.03167128190398216, 0.12366378307342529, 0.19178053736686707, 0.23902440071105957, 0.43583858013153076, -0.4445500075817108, -0.14816445112228394, -0.5795000195503235], [0.17530465126037598, -0.11278650164604187, 0.15575741231441498, 0.2522386312484741, 0.07369574904441833, 0.19090662896633148, 0.36446642875671387, -0.20945079624652863, -0.14246487617492676, -0.42116475105285645], [0.2199782431125641, -0.027725806459784508, 0.11588619649410248, 0.14247459173202515, -0.057303063571453094, 0.13813239336013794, 0.3798711597919464, -0.17115961015224457, -0.11927805840969086, -0.20987536013126373], [0.30143290758132935, -0.06439385563135147, 0.1599116176366806, 0.19625702500343323, -0.06855069845914841, 0.09074874222278595, 0.3004179298877716, -0.06889418512582779, 0.0006306925788521767, -0.18236561119556427], [0.3571569621562958, 0.0382058285176754, 0.16391432285308838, 0.15819278359413147, -0.021937856450676918, 0.14170032739639282, 0.24389058351516724, 0.10948336124420166, 0.017518969252705574, -0.00399716617539525], [0.33469390869140625, -0.01703965850174427, 0.08846111595630646, 0.17426379024982452, -0.017859701067209244, 0.10564321279525757, 0.24951717257499695, 0.20795607566833496, -0.021617388352751732, -0.006985111627727747], [0.3028363883495331, -0.10898757725954056, 0.12524358928203583, 0.05612683668732643, 0.1645517200231552, 0.1120978593826294, 0.20603947341442108, 0.22527988255023956, 0.12976188957691193, 0.04350361227989197], [0.23337893187999725, -0.1449306458234787, 0.03097398951649666, 0.025809189304709435, 0.12242189794778824, 0.09466532617807388, 0.2553267478942871, 0.21724416315555573, 0.11614542454481125, 0.055001500993967056], [0.17848818004131317, -0.072212815284729, 0.0569661520421505, -0.07762309908866882, 0.2433360517024994, 0.0810699537396431, 0.36594459414482117, 0.3023388683795929, 0.1857622265815735, 0.10818500071763992], [0.09139465540647507, -0.03349441662430763, 0.014863057062029839, -0.0036172899417579174, 0.23477087914943695, -0.001350118895061314, 0.2868078052997589, 0.25223955512046814, 0.06644609570503235, 0.14236310124397278], [-0.05064745247364044, -0.02968989498913288, -0.013812296092510223, -0.18949711322784424, 0.43899229168891907, 0.15703076124191284, 0.38698962330818176, 0.14462921023368835, 0.09423333406448364, 0.19505921006202698], [-0.03711448982357979, 2.9619226552313194e-05, -0.0344059094786644, -0.14863643050193787, 0.4338914155960083, 0.06789258867502213, 0.43461453914642334, 0.16935157775878906, -0.06612169742584229, 0.3134895861148834], [0.0680617019534111, -0.09372425079345703, 0.08016093820333481, -0.07837636023759842, 0.2898115813732147, -0.0648578554391861, 0.3225523829460144, 0.15121810138225555, 0.023242289200425148, 0.2402268499135971], [0.21121515333652496, -0.017760053277015686, 0.033516738563776016, 0.015294265002012253, 0.15491294860839844, -0.14542846381664276, 0.27963191270828247, 0.08920737355947495, -0.011892198584973812, 0.11721999198198318], [0.2540009021759033, -0.007728577125817537, -0.051693905144929886, -0.03730689361691475, 0.17570525407791138, -0.14345476031303406, 0.26835307478904724, -0.005391986574977636, -0.10311051458120346, -0.03866075724363327], [0.33912691473960876, -0.012142077088356018, 0.02886388450860977, -0.05604531988501549, 0.09967193752527237, -0.07386514544487, 0.261075884103775, 0.0826343297958374, -0.0396401472389698, -0.2141701579093933], [0.3766113519668579, 0.014878191985189915, 0.027984967455267906, -0.10953032970428467, 0.0882958397269249, -0.14205297827720642, 0.13540734350681305, 0.22781327366828918, -0.013851596973836422, -0.09744878113269806], [0.3007740378379822, 0.030181940644979477, -0.04865892231464386, -0.13746458292007446, 0.13134939968585968, -0.039947912096977234, 0.06497787684202194, 0.1460418999195099, -0.018042268231511116, -0.1378164440393448], [0.39550304412841797, -0.04292469844222069, -0.017679039388895035, 0.0037236225325614214, -0.007965845987200737, -0.16461895406246185, -0.1412564367055893, 0.18291616439819336, -0.0292440727353096, -0.21782080829143524], [0.7005962133407593, -0.2429111897945404, -0.012911434285342693, 0.09565763175487518, -0.19863633811473846, -0.15888258814811707, -0.38006454706192017, 0.35789892077445984, 0.05308367311954498, -0.19603469967842102], [0.8512903451919556, -0.014466357417404652, -0.1692751795053482, -0.2561814486980438, -0.3883397877216339, -0.003066214732825756, -0.5104507207870483, 0.4453136622905731, 0.09651905298233032, -0.37781932950019836], [0.6950857043266296, 0.4289723038673401, -0.4107381999492645, -0.39866912364959717, -0.3523739278316498, 0.21868225932121277, -0.20622994005680084, 0.2086968570947647, 0.02198418602347374, -0.493764728307724], [0.35535088181495667, 0.4763643443584442, -0.06018926203250885, -0.27187445759773254, -0.04309089109301567, 0.12324576824903488, 0.07931598275899887, 0.23249419033527374, -0.19417302310466766, -0.4349043667316437], [0.16285216808319092, 0.15644007921218872, -0.028777513653039932, -0.17667756974697113, 0.0369434729218483, 0.02800680138170719, 0.06751283258199692, 0.14503736793994904, -0.20970796048641205, -0.09614410996437073], [0.07836176455020905, -0.03459319844841957, 0.009818361140787601, 0.05433552339673042, -0.14563700556755066, -0.019274385645985603, 0.07716447860002518, -0.004747563041746616, 0.11862640827894211, -0.1036468967795372], [0.1953316032886505, -0.15510247647762299, -0.08261116594076157, 0.14480093121528625, -0.019679563120007515, 0.01995590329170227, 0.14611473679542542, -0.2124449908733368, 0.12400174140930176, 0.013622590340673923], [0.12629680335521698, -0.27475646138191223, 0.01807839795947075, 0.08336375653743744, 0.04619965702295303, 0.13906249403953552, 0.20711538195610046, -0.167045459151268, -0.10073725879192352, 0.03662585839629173], [0.11772650480270386, -0.1761961281299591, -0.10845617204904556, -0.044636018574237823, 0.17390981316566467, 0.1545298844575882, 0.4675084054470062, -0.24339750409126282, -0.11075962334871292, -0.2248498648405075], [0.10455094277858734, -0.2558712661266327, -0.01609092764556408, 0.16218654811382294, 0.10242576152086258, 0.18893955647945404, 0.452985554933548, -0.14646275341510773, -0.16564704477787018, -0.47650662064552307], [0.030909519642591476, -0.09127254039049149, 0.25008413195610046, 0.19908587634563446, -0.10915762931108475, 0.016989758238196373, 0.3448745012283325, 0.022780392318964005, -0.07096976786851883, -0.3980075716972351], [0.11857389658689499, -0.030542653053998947, 0.06605031341314316, 0.042511772364377975, -0.009046853519976139, 0.1278429478406906, 0.3276653289794922, 0.07238554954528809, -0.1609412431716919, -0.11899185925722122], [0.22687695920467377, -0.001984992530196905, 0.10279949009418488, 0.050076745450496674, -0.13066163659095764, -0.0014928234741091728, 0.3129154443740845, 0.04122554510831833, -0.08856651186943054, 0.028729181736707687], [0.1778726428747177, 0.08405008912086487, 0.11626070737838745, 0.0454983115196228, -0.020535839721560478, 0.03828590735793114, 0.17927134037017822, 0.28841695189476013, 0.10632959008216858, 0.053187690675258636], [0.2298242449760437, -0.0025533922016620636, 0.14696404337882996, 0.08574386686086655, -0.0675448402762413, -0.10689804702997208, 0.2315078228712082, 0.21827298402786255, 0.20938415825366974, 0.03507222607731819], [0.28934288024902344, -0.030223941430449486, 0.08594481647014618, 0.0891931802034378, 0.07802753895521164, -0.05720220133662224, 0.21367815136909485, 0.23026128113269806, 0.27407896518707275, 0.03992095962166786], [0.34788432717323303, -0.09357889741659164, 0.09635216742753983, 0.005135405343025923, -0.002229602076113224, -0.12369568645954132, 0.1780843585729599, 0.3640550971031189, 0.3480835258960724, 0.0674760490655899], [0.26353561878204346, -0.135542631149292, 0.039530303329229355, 0.05085104703903198, 0.027640556916594505, -0.146121546626091, 0.10219153016805649, 0.23810134828090668, 0.29469865560531616, 0.09869559854269028], [0.1401895135641098, 0.03652992844581604, 0.027925463393330574, 0.08350364863872528, 0.07076648622751236, -0.11760438233613968, 0.23910625278949738, 0.18914006650447845, 0.09947636723518372, 0.25993579626083374], [-0.08622195571660995, -0.10326744616031647, 0.007791647221893072, -0.17493845522403717, 0.2658761143684387, 0.17156128585338593, 0.5594730377197266, 0.06536306440830231, -0.06500741094350815, 0.3724963068962097], [-0.031359512358903885, -0.18719445168972015, -0.12047304958105087, -0.11023254692554474, 0.297843337059021, 0.20583681762218475, 0.6427168250083923, -0.14611192047595978, -0.08389544486999512, 0.07292929291725159], [0.15294480323791504, -0.2039126753807068, 0.05838271975517273, 0.0635448545217514, 0.2947090268135071, 0.049502789974212646, 0.46836990118026733, -0.18787327408790588, 0.009995135478675365, -0.01936395652592182], [0.3169325590133667, -0.13978122174739838, -0.03680674359202385, 0.03737742826342583, 0.27472901344299316, -0.09297505766153336, 0.4383810758590698, -0.12117212265729904, -0.030496161431074142, -0.04737662151455879], [0.28149452805519104, 0.01258566603064537, -0.05570035055279732, 0.08438926935195923, 0.22940737009048462, -0.11183547973632812, 0.3672364354133606, -0.08488181233406067, -0.10978082567453384, -0.17236056923866272], [0.4015026390552521, -0.08616459369659424, -0.011793465353548527, 0.03681856393814087, 0.1882450133562088, -0.15073230862617493, 0.2902110815048218, 0.0007334390538744628, -0.09045112878084183, -0.20309558510780334], [0.3068220019340515, 0.033867936581373215, 0.09852125495672226, -0.007374421693384647, 0.1908709555864334, -0.007479981053620577, 0.1704164743423462, 0.06791631877422333, -0.16361387073993683, -0.10810413211584091], [0.3230395019054413, -0.017023876309394836, 0.051986269652843475, -0.13896286487579346, 0.06310389935970306, 0.011473296210169792, 0.172340989112854, 0.17978715896606445, -0.0003855921095237136, -0.22820515930652618], [0.39313504099845886, -0.09659548103809357, 0.0055573503486812115, -0.02216624841094017, 0.006293125916272402, -0.09568218886852264, 0.09048674255609512, 0.33433419466018677, 0.03142661601305008, -0.12159483134746552], [0.7272431254386902, -0.1948508471250534, -0.086455337703228, -0.06101818010210991, -0.22766219079494476, -0.20235773921012878, -0.24554499983787537, 0.4122464060783386, -0.07322312146425247, -0.03537390008568764], [0.940026044845581, -0.01450300682336092, -0.3883754014968872, -0.4307410717010498, -0.3635752201080322, 0.12950487434864044, -0.5953056216239929, 0.6536863446235657, -0.13697674870491028, -0.06408421695232391], [0.8712698817253113, 0.281487375497818, -0.646902859210968, -0.8507559895515442, -0.2673252820968628, 0.5316882729530334, -0.31206899881362915, 0.49337634444236755, -0.3113090693950653, -0.3259814381599426], [0.50087970495224, 0.2422919124364853, -0.1680397242307663, -0.5098656415939331, -0.04462667554616928, 0.17464523017406464, -0.02850164659321308, 0.40208733081817627, -0.2182512730360031, -0.2810741066932678], [0.12670953571796417, -0.025265568867325783, -0.06752888858318329, -0.22047936916351318, -0.15191885828971863, 0.15268294513225555, -0.1237976923584938, 0.10009637475013733, -0.08074512332677841, -0.11654461175203323], [0.03384195268154144, -0.06841941922903061, -0.14409051835536957, -0.0009180737542919815, -0.08070049434900284, 0.04526625946164131, 0.021376997232437134, 0.02509171888232231, -0.0312768928706646, -0.09397078305482864], [0.0732477679848671, -0.1814495027065277, -0.15806423127651215, -6.84224187352811e-06, 0.02643190138041973, 0.08517168462276459, 0.0654706358909607, -0.05851656571030617, 0.05162837356328964, 0.12132362276315689], [0.19560657441616058, -0.21888944506645203, -0.08359631150960922, 0.05041056498885155, 0.039799775928258896, 0.14326226711273193, 0.2331998348236084, -0.14881259202957153, -0.03175609931349754, -0.039095766842365265], [0.170168936252594, -0.13876481354236603, -0.265447199344635, -0.05923834815621376, 0.25162094831466675, 0.11836152523756027, 0.48607349395751953, -0.3333083987236023, -0.10015604645013809, -0.22997494041919708], [0.22392262518405914, -0.03453716263175011, 0.0818963423371315, -0.020558131858706474, 0.015440513379871845, 0.02207442931830883, 0.3664419651031494, -0.015001386404037476, -0.17077401280403137, -0.5756542086601257], [0.16027534008026123, -0.05080275610089302, 0.13382473587989807, 0.11180712282657623, -0.09369128942489624, -0.028888236731290817, 0.2119085192680359, 0.0607144795358181, -0.03642520308494568, -0.258512020111084], [0.06557455658912659, 0.1472538709640503, 0.11767055839300156, 0.0011222066823393106, -0.20820629596710205, -0.03356759622693062, 0.16542649269104004, 0.1992606371641159, 0.07719834893941879, 0.08812747150659561], [0.15270988643169403, 0.21142297983169556, -0.05985509604215622, -0.0469302237033844, -0.2894950211048126, -0.21190758049488068, 0.14321137964725494, 0.19090810418128967, 0.15764614939689636, 0.08838862925767899], [0.14291182160377502, 0.12216763198375702, 0.05900701507925987, -0.013724684715270996, -0.1935197412967682, -0.31740403175354004, -0.0638388842344284, 0.36890777945518494, 0.3694727420806885, 0.21345365047454834], [0.2792929708957672, 0.11600125581026077, 0.08431892096996307, 0.10594962537288666, -0.0873706266283989, -0.3583121597766876, -0.09848710149526596, 0.3678450286388397, 0.357957661151886, 0.09324724227190018], [0.39161214232444763, 0.11358418315649033, 0.04380965232849121, 0.04892044886946678, -0.22701139748096466, -0.28633201122283936, -0.07087939232587814, 0.3535812795162201, 0.46482887864112854, 0.1928858906030655], [0.3295193314552307, 0.07312659919261932, 0.03280388563871384, 0.06842658668756485, -0.07458685338497162, -0.3925342559814453, -0.11821078509092331, 0.3566807210445404, 0.5302987694740295, 0.2463150918483734], [0.45162060856819153, 0.011373971588909626, -0.0989050343632698, 0.15048658847808838, -0.25499582290649414, -0.3307906687259674, -0.09367010742425919, 0.2704463303089142, 0.31316831707954407, 0.275370717048645], [0.3211451768875122, -0.060936130583286285, -0.16405712068080902, -0.0810525119304657, -0.14071086049079895, -0.15481778979301453, 0.2495216727256775, 0.1331523060798645, 0.03581290692090988, 0.28919360041618347], [0.10029951483011246, -0.058576226234436035, -0.26044097542762756, -0.2012128084897995, -0.12523303925991058, 0.07605499029159546, 0.5722349882125854, 0.08454041928052902, -0.0053088427521288395, 0.008750968612730503], [0.030085885897278786, 0.022955406457185745, -0.25707578659057617, -0.08337864279747009, -0.07167050987482071, 0.1545640230178833, 0.6573182344436646, -0.37327641248703003, 0.08664115518331528, -0.13719114661216736], [0.24530500173568726, -0.14799746870994568, -0.11623020470142365, 0.0020095135550945997, 0.15497830510139465, 0.1543901562690735, 0.5019197463989258, -0.36195093393325806, 0.17560654878616333, -0.2805272340774536], [0.164595365524292, -0.006555549800395966, 0.058460112661123276, 0.14230193197727203, 0.13158367574214935, -0.02244766429066658, 0.406351238489151, -0.24836063385009766, -0.053615279495716095, -0.11233296245336533], [0.20021507143974304, 0.0469818040728569, 0.15731538832187653, 0.12821513414382935, 0.2943311631679535, -0.22469237446784973, 0.3655354976654053, -0.24228554964065552, -0.11584515869617462, -0.04190102219581604], [0.23740844428539276, 0.06783970445394516, 0.18151451647281647, 0.24939797818660736, 0.25936031341552734, -0.25775983929634094, 0.3327087163925171, -0.14605821669101715, -0.28836262226104736, 0.008080346509814262], [0.10800924897193909, 0.03276172652840614, 0.058765340596437454, 0.15780282020568848, 0.19689105451107025, -0.08382192254066467, 0.3251728117465973, 0.034059807658195496, -0.17803196609020233, 0.05895969271659851], [0.10522289574146271, 0.08319709450006485, 0.11171286553144455, 0.11633282154798508, 0.11520173400640488, -0.22547753155231476, 0.3744809627532959, 0.08893399685621262, -0.14354442059993744, 0.09320727735757828], [0.23711098730564117, 0.006305689457803965, 0.05472669005393982, 0.11874410510063171, -0.007917762733995914, -0.2907434105873108, 0.28499680757522583, 0.16104230284690857, 0.0719066634774208, 0.05704425275325775], [0.3493105471134186, -0.13648362457752228, 0.10660810023546219, -0.08158981055021286, -0.1311284452676773, -0.1038224846124649, 0.020884696394205093, 0.35430121421813965, -0.14904196560382843, 0.15549595654010773], [0.6801101565361023, -0.04287703335285187, -0.21340347826480865, -0.33716946840286255, -0.20467358827590942, 0.1969107985496521, -0.32436129450798035, 0.4069739580154419, -0.21473513543605804, 0.12081057578325272], [0.7892951369285583, 0.3718986511230469, -0.5187775492668152, -0.9408337473869324, -0.14344841241836548, 0.4357563555240631, -0.442081093788147, 0.44745945930480957, -0.24649466574192047, -0.22095543146133423], [0.559476375579834, 0.18718047440052032, -0.359619677066803, -0.5801477432250977, -0.15990318357944489, 0.2430124431848526, -0.17697679996490479, 0.39582115411758423, -0.3086354434490204, -0.14270038902759552], [0.06314484775066376, 0.21194052696228027, 0.01307868305593729, -0.2509462237358093, -0.09299536049365997, 0.06368262320756912, 0.008379949256777763, 0.14599499106407166, -0.15619345009326935, -0.10989285260438919], [-0.042601097375154495, 0.002835368039086461, 0.06707711517810822, -0.016441836953163147, 0.016624251380562782, -0.08904790878295898, 0.0716613307595253, 0.06634633988142014, -0.04658243805170059, 0.05688859149813652], [0.06624864786863327, -0.2372204065322876, 0.040902554988861084, -0.07071956992149353, -0.04943477734923363, 0.07938461005687714, 0.16428212821483612, -0.08045752346515656, 0.02908526547253132, 0.17541590332984924], [0.38536474108695984, -0.15185242891311646, -0.19388115406036377, 0.05757885053753853, -0.07350722700357437, 0.17484141886234283, 0.3174709975719452, -0.02538609877228737, -0.09962724149227142, -0.09451188892126083], [0.326752632856369, -0.21906694769859314, -0.19214549660682678, 0.03969496861100197, 0.050776124000549316, 0.023755205795168877, 0.3490496873855591, -0.4366573989391327, -0.08751662075519562, -0.11387801170349121], [0.16880081593990326, -0.0356307327747345, 0.02679210528731346, 0.06422702223062515, -0.061088595539331436, -0.11139778047800064, 0.1180928573012352, -0.0934915542602539, 0.24152857065200806, -0.2977682948112488], [0.03582407534122467, 0.21926359832286835, -0.04770226404070854, -0.06766580045223236, -0.12429063022136688, -0.24265120923519135, 0.1156182736158371, 0.13763673603534698, 0.2824035882949829, 0.12684199213981628], [0.15155524015426636, 0.18442179262638092, -0.021979641169309616, -0.09273765236139297, -0.2971452474594116, -0.4415784478187561, -0.0662020891904831, 0.26860707998275757, 0.3402147591114044, 0.2696376144886017], [0.23635892570018768, 0.23506970703601837, -0.10178842395544052, 0.019372673705220222, -0.3361532390117645, -0.5786611437797546, -0.028218651190400124, 0.2936389744281769, 0.502941370010376, 0.3451715111732483], [0.21668604016304016, 0.28194811940193176, -0.03351317718625069, 0.08135361224412918, -0.24449650943279266, -0.6326712965965271, -0.07688490301370621, 0.21376411616802216, 0.49346140027046204, 0.17851406335830688], [0.26745596528053284, 0.28043511509895325, -0.03841609135270119, 0.04360968619585037, -0.18547813594341278, -0.3877390921115875, -0.05139452964067459, 0.26554661989212036, 0.47036314010620117, 0.10083291679620743], [0.3300001323223114, 0.27039891481399536, -0.12929856777191162, 0.12916699051856995, -0.231679305434227, -0.35614338517189026, -0.19860009849071503, 0.1967220902442932, 0.32474827766418457, 0.21062129735946655], [0.5044564604759216, 0.28515565395355225, -0.2220919132232666, 0.11005700379610062, -0.08665457367897034, -0.3540519177913666, -0.16550159454345703, 0.0897856205701828, 0.2520292103290558, 0.3076851963996887], [0.44430240988731384, 0.2517101466655731, -0.18039485812187195, 0.13756999373435974, -0.2425452023744583, -0.12721829116344452, -0.11634312570095062, 0.0826348215341568, 0.160438671708107, 0.2572431266307831], [0.3441760241985321, 0.340298593044281, -0.22173956036567688, -0.25132670998573303, -0.3516830503940582, -0.2334609180688858, 0.15790267288684845, 0.2985772490501404, 0.013988194987177849, 0.2720639705657959], [-0.06203578785061836, 0.5861003398895264, -0.21367785334587097, -0.317716509103775, -0.33057764172554016, -0.13979630172252655, 0.37103769183158875, 0.1725030541419983, 0.12499549239873886, -0.06115810200572014], [-0.06534405797719955, 0.3644302785396576, -0.18458101153373718, -0.21487359702587128, -0.09603789448738098, -0.04901834577322006, 0.3988417088985443, -0.3535706698894501, 0.2858080267906189, -0.19432415068149567], [0.014771929010748863, 0.20350249111652374, 0.004542785231024027, 0.07324414700269699, -0.08446904271841049, 0.06255604326725006, 0.4186560809612274, -0.45492616295814514, 0.3547142744064331, -0.19753071665763855], [0.06519541889429092, 0.0973452627658844, -0.04301375523209572, 0.09886374324560165, 0.0933910682797432, -0.08304811269044876, 0.3625405728816986, -0.3327814042568207, 0.16363179683685303, 0.04984963685274124], [0.07051898539066315, 0.1265873908996582, 0.19895873963832855, 0.12112574279308319, 0.2252158522605896, -0.20670342445373535, 0.3698131740093231, -0.28261372447013855, -0.07698144763708115, 0.04067789390683174], [-0.0845692828297615, 0.16803289949893951, 0.14235633611679077, 0.21924948692321777, 0.19945499300956726, -0.17843714356422424, 0.3945806920528412, -0.17060111463069916, -0.1926032453775406, 0.08614367246627808], [-0.15298150479793549, 0.07134170830249786, 0.2975553870201111, 0.2556847929954529, 0.18250404298305511, -0.26906952261924744, 0.4565620720386505, -0.08968202769756317, -0.12674231827259064, 0.3231673538684845], [-0.22036400437355042, 0.05152752250432968, 0.3519994616508484, 0.32699134945869446, 0.06332291662693024, -0.4722784161567688, 0.37956035137176514, -0.06244146451354027, -0.01759018935263157, 0.24945731461048126], [-0.2826710641384125, -0.0014850200386717916, 0.40346139669418335, 0.38808679580688477, 0.037074558436870575, -0.5696030259132385, 0.31485050916671753, -0.012714745476841927, 0.03081490285694599, 0.39659765362739563], [-0.11073023825883865, 0.0005972861545160413, 0.4047255516052246, 0.2272910475730896, -0.05481908097863197, -0.4392688572406769, 0.12048856914043427, 0.3390735983848572, 0.07407873868942261, 0.28238046169281006], [0.031149357557296753, -0.1505763679742813, 0.36903834342956543, 0.08008398860692978, -0.10811375826597214, -0.2996918261051178, -0.12116094678640366, 0.47450727224349976, -0.08700288832187653, 0.23629537224769592], [0.42093610763549805, 0.26003319025039673, -0.23577195405960083, -0.5350971221923828, -0.04766000434756279, -0.0810059979557991, -0.1302601397037506, 0.35922980308532715, -0.16874361038208008, -0.1531532257795334], [0.48287254571914673, 0.27284175157546997, -0.08401371538639069, -0.5012410879135132, 0.0681997537612915, -0.06061474233865738, -0.03068116493523121, 0.30139684677124023, -0.2516898810863495, -0.20086251199245453], [0.002658909885212779, 0.15530706942081451, -0.07005103677511215, -0.1375509351491928, -0.17380006611347198, 0.026109550148248672, -0.0011189042124897242, 0.06394156813621521, -0.05070032551884651, -0.13023030757904053], [0.05835004895925522, -0.004369194153696299, 0.019142912700772285, 0.09063053131103516, -0.07697010040283203, 0.01523224450647831, -0.007787126582115889, 0.0653497502207756, 0.047586649656295776, 0.08089964091777802], [0.13525858521461487, -0.16980057954788208, -0.05126345157623291, -0.052908726036548615, -0.05554720759391785, 0.021641327068209648, 0.2793709635734558, 0.06355562061071396, 0.10784168541431427, 0.04795418679714203], [0.27708321809768677, -0.18769027292728424, -0.13384291529655457, 0.0077978819608688354, -0.14511577785015106, 0.07769211381673813, 0.2190147340297699, -0.11705489456653595, -0.016016781330108643, 0.08076092600822449], [0.32263705134391785, -0.17238089442253113, -0.17300449311733246, 0.12525402009487152, -0.1579628735780716, -0.033936597406864166, 0.1674707680940628, -0.3090774118900299, 0.1383688598871231, -0.15477941930294037], [0.06011876463890076, 0.047578610479831696, -0.12116630375385284, -0.02968800999224186, 0.06106415018439293, -0.26703259348869324, 0.06145235523581505, -0.19667880237102509, 0.29370397329330444, -0.05215346813201904], [0.05564061924815178, 0.38046807050704956, -0.2239193618297577, -0.06834867596626282, -0.08821151405572891, -0.5130653977394104, -0.037611838430166245, 0.15654034912586212, 0.41060903668403625, 0.30095675587654114], [0.1262703835964203, 0.38201069831848145, -0.28380948305130005, -0.09206508845090866, -0.3007277250289917, -0.5926861763000488, -0.21750862896442413, 0.23965217173099518, 0.4280337393283844, 0.4098335802555084], [0.1776198148727417, 0.40922799706459045, -0.26726847887039185, 0.028276793658733368, -0.2468239665031433, -0.6247130036354065, -0.18524977564811707, 0.15844032168388367, 0.4291089177131653, 0.2771780788898468], [0.1952502280473709, 0.3895258903503418, -0.24445319175720215, 0.13970716297626495, -0.17344367504119873, -0.5096068382263184, -0.1659305989742279, 0.09719910472631454, 0.3914392590522766, 0.2349911779165268], [0.1964176893234253, 0.38125354051589966, -0.15852102637290955, 0.1257811188697815, 0.03687882795929909, -0.33186447620391846, -0.10229914635419846, -0.04294910654425621, 0.3060785233974457, 0.19741079211235046], [0.3517681658267975, 0.47967052459716797, -0.2709302306175232, 0.18444769084453583, 0.0194864384829998, -0.2901269793510437, -0.25954192876815796, -0.11517840623855591, 0.14772777259349823, 0.16494795680046082], [0.43381446599960327, 0.46011045575141907, -0.15615415573120117, 0.27712905406951904, 0.0053466190584003925, -0.04158799722790718, -0.3941824436187744, -0.025172024965286255, 0.05154179781675339, 0.0931774154305458], [0.36531543731689453, 0.527082622051239, -0.04900626465678215, 0.06747445464134216, -0.1902923583984375, -0.022152433171868324, -0.41577276587486267, 0.14994050562381744, -0.16690471768379211, 0.10053762793540955], [0.09842889755964279, 0.8716859817504883, -0.08408617973327637, -0.26801231503486633, -0.16706056892871857, -0.21714892983436584, -0.23510734736919403, 0.2938970923423767, -0.19940780103206635, 0.12289038300514221], [-0.42781099677085876, 0.9866868853569031, -0.22590181231498718, -0.299314945936203, -0.2697276771068573, -0.21448113024234772, 0.14811059832572937, 0.1527160257101059, 0.1474289447069168, -0.15761949121952057], [-0.20950208604335785, 0.52266526222229, -0.13959084451198578, -0.14560812711715698, -0.09578686952590942, -0.0807146355509758, 0.28084123134613037, -0.20211908221244812, 0.3307946026325226, -0.19404000043869019], [0.020175479352474213, 0.3593643307685852, 0.11227055639028549, 0.08036666363477707, 0.028326954692602158, -0.08106294274330139, 0.24560078978538513, -0.4221183955669403, 0.3002583682537079, 0.04593084752559662], [0.019531425088644028, 0.29432183504104614, 0.005515722557902336, 0.027790246531367302, 0.18385565280914307, -0.1701311320066452, 0.13679096102714539, -0.30080515146255493, 0.2629793584346771, 0.03544869273900986], [-0.10401601344347, 0.3123197555541992, 0.07448037713766098, 0.11574353277683258, 0.178714781999588, -0.26058903336524963, 0.18628598749637604, -0.15384848415851593, 0.09919621050357819, 0.07939480990171432], [-0.10764540731906891, 0.24183981120586395, 0.19834361970424652, 0.11708668619394302, 0.15456676483154297, -0.2916012704372406, 0.19727863371372223, 0.045369330793619156, -0.013955645263195038, 0.09534486383199692], [-0.3172556161880493, 0.11292726546525955, 0.257813960313797, 0.10203608125448227, 0.2038237601518631, -0.42012301087379456, 0.2842867076396942, 0.09598443657159805, 0.13874197006225586, 0.15450672805309296], [-0.3331211507320404, 0.16587288677692413, 0.3675747513771057, 0.3460482656955719, -0.011173561215400696, -0.42737630009651184, 0.13526444137096405, 0.11691196262836456, 0.08409003913402557, 0.31032606959342957], [-0.33035939931869507, 0.14614705741405487, 0.44057753682136536, 0.377040833234787, -0.2381521761417389, -0.5516967177391052, 0.0651169940829277, 0.08735794574022293, 0.15446868538856506, 0.5012069940567017], [-0.24799159169197083, -0.02828580141067505, 0.5616497993469238, 0.52872633934021, -0.3280344307422638, -0.5949822068214417, 0.04363945499062538, 0.19756048917770386, 0.13853643834590912, 0.48146089911460876], [-0.33453088998794556, -0.05219743400812149, 0.6498203277587891, 0.29129454493522644, -0.25423264503479004, -0.3037484288215637, -0.058929361402988434, 0.3924351930618286, -0.05743452161550522, 0.3282318711280823], [0.0676909014582634, 0.12050103396177292, 0.3612624406814575, -0.0616094134747982, 0.21356992423534393, -0.16090646386146545, 0.2232401967048645, 0.359233558177948, -0.07059770077466965, -0.25101736187934875], [0.362224280834198, 0.21116572618484497, 0.23217952251434326, -0.2180107831954956, 0.1181224063038826, -0.24827367067337036, 0.08644534647464752, 0.29688069224357605, -0.28868868947029114, -0.3222246468067169], [-0.03546241298317909, 0.06294035166501999, 0.04661627858877182, -0.10172689706087112, 0.038707125931978226, 0.06961643695831299, 0.05782715231180191, 0.05506941303610802, 0.05801858380436897, 0.03361683711409569], [0.026161059737205505, -0.044492121785879135, 0.05332420766353607, -0.06968633085489273, -0.07022739201784134, 0.004242446273565292, -0.01287228986620903, 0.09782753884792328, 0.06490039080381393, -0.04028017446398735], [0.16120222210884094, -0.12871387600898743, 0.00821357499808073, 0.0189887173473835, -0.039308857172727585, -0.10342104732990265, 0.1411384791135788, -0.014828546904027462, 0.07539093494415283, 0.08069881051778793], [0.311628133058548, -0.23633837699890137, -0.0001741264422889799, 0.0028997561894357204, -0.06679613888263702, -0.1064416915178299, 0.26046591997146606, -0.17617717385292053, 0.0072439382784068584, 0.009013865143060684], [0.1758432537317276, 0.015827693045139313, -0.11288037151098251, 0.019587906077504158, -0.02459900453686714, -0.06960071623325348, 0.15786267817020416, -0.2650662362575531, 0.11967185139656067, -0.1312311887741089], [0.0444340705871582, 0.2685883939266205, -0.2317979484796524, -0.08199306577444077, 0.15914286673069, -0.32279282808303833, 0.01914924383163452, -0.17146962881088257, 0.24320830404758453, 0.09299676865339279], [0.09276331961154938, 0.3146857023239136, -0.4123166799545288, -0.11188817769289017, 0.02413579635322094, -0.42445993423461914, -0.22472268342971802, -0.13926322758197784, 0.22016039490699768, 0.17165763676166534], [0.20528577268123627, 0.2819957435131073, -0.5461432337760925, 0.12005401402711868, -0.2164529711008072, -0.6118845343589783, -0.2940763831138611, -0.1658259928226471, 0.33875149488449097, 0.34107303619384766], [0.2602726221084595, 0.25270557403564453, -0.36401498317718506, 0.13418611884117126, -0.2380998432636261, -0.41106516122817993, -0.3011930584907532, -0.1635112166404724, 0.308322548866272, 0.2681221067905426], [0.23449642956256866, 0.32873448729515076, -0.28593966364860535, 0.13571815192699432, -0.08741888403892517, -0.28058674931526184, -0.23304107785224915, -0.17262579500675201, 0.32131752371788025, 0.1894720047712326], [0.2679736614227295, 0.38590800762176514, -0.08633504062891006, 0.16317567229270935, 0.0184503011405468, -0.18532532453536987, -0.2735476791858673, -0.13531437516212463, 0.1723542958498001, 0.026820551604032516], [0.3796106278896332, 0.420522004365921, -0.07915324717760086, 0.3143158555030823, 0.19392649829387665, -0.05645168945193291, -0.49634331464767456, -0.11109863966703415, 0.05157140642404556, 0.15134906768798828], [0.29611828923225403, 0.4400726854801178, 0.048033617436885834, 0.47444239258766174, 0.049852609634399414, 0.0607941560447216, -0.5451505780220032, 0.02605717070400715, -0.13094179332256317, 0.05895909667015076], [0.11257798224687576, 0.6154424548149109, 0.17372311651706696, 0.060066137462854385, -0.061220549046993256, 0.10381633043289185, -0.5912075042724609, 0.10960559546947479, -0.17670151591300964, -0.13564801216125488], [-0.1438775658607483, 0.8256186246871948, 0.030605198815464973, -0.1414767950773239, -0.007490082643926144, -0.014514402486383915, -0.30165567994117737, 0.23786592483520508, -0.11721985042095184, -0.19245180487632751], [-0.37928417325019836, 0.86558997631073, -0.08465325832366943, -0.18852078914642334, -0.04388223588466644, -0.10592389851808548, -0.0335228405892849, 0.03705519065260887, 0.18017323315143585, -0.11822012811899185], [-0.26405274868011475, 0.636094868183136, -0.02814246155321598, -0.10566472262144089, -0.15843354165554047, -0.02867116406559944, 0.19965673983097076, -0.07030484825372696, 0.4751957356929779, -0.003926348872482777], [-0.11813881993293762, 0.44876936078071594, 0.05901331827044487, 0.029046762734651566, -0.0009582990314811468, -0.046693120151758194, 0.23394373059272766, -0.21686643362045288, 0.2892584800720215, -0.012802105396986008], [-0.04707997664809227, 0.3117233216762543, 0.02648225426673889, 0.07918448746204376, 0.09952463954687119, -0.04742499068379402, 0.14765143394470215, -0.2462167590856552, 0.19446612894535065, 0.08566630631685257], [-0.06418021023273468, 0.2623486816883087, -0.08025047928094864, 0.05434184521436691, 0.2437688112258911, -0.18893156945705414, 0.005779508501291275, -0.08206925541162491, 0.11138413101434708, 0.03262384980916977], [-0.016465097665786743, 0.31423163414001465, 0.07465698570013046, 0.09632765501737595, 0.18765175342559814, -0.23562853038311005, 0.03624792397022247, 0.02507440373301506, 0.22132371366024017, 0.06563589721918106], [-0.03730051591992378, 0.25289154052734375, 0.0875399261713028, 0.11505518853664398, 0.08404422551393509, -0.16244187951087952, -0.04342147335410118, 0.014943180605769157, 0.13683563470840454, 0.02636127918958664], [-0.1549576073884964, 0.2524886429309845, 0.20663531124591827, 0.16033923625946045, -0.04128262400627136, -0.232119619846344, 0.03185572475194931, 0.023027002811431885, 0.11752951890230179, 0.18415988981723785], [0.017767028883099556, 0.04830339923501015, 0.2827136218547821, 0.36598268151283264, -0.18260043859481812, -0.18308097124099731, -0.10814947634935379, 0.040667664259672165, 0.13180609047412872, 0.3204866647720337], [-0.13917946815490723, -0.16977624595165253, 0.35620445013046265, 0.5555794835090637, -0.3683950901031494, -0.19172945618629456, -0.2601207494735718, 0.10134273767471313, 0.06687755137681961, 0.550853431224823], [0.00987686775624752, -0.19195668399333954, 0.4397699236869812, 0.47732827067375183, -0.3371330201625824, -0.17315979301929474, -0.34126830101013184, 0.2822335660457611, 0.051011618226766586, 0.4352567791938782], [-0.09125669300556183, -0.13250763714313507, 0.3346691131591797, 0.14524583518505096, 0.18872013688087463, 0.06260252743959427, 0.1756727546453476, 0.17469337582588196, -0.03716275468468666, -0.14989425241947174], [0.07606522738933563, -0.07200699299573898, 0.20967304706573486, 0.012196564115583897, 0.18457776308059692, 0.07200311124324799, 0.17705807089805603, 0.14803101122379303, -0.2603514492511749, -0.22221790254116058], [-0.06322453171014786, -0.03268894553184509, 0.19453217089176178, -0.044245991855859756, 0.021593648940324783, 0.02011413872241974, 0.11452426016330719, 0.14896273612976074, -0.1682722419500351, -0.16345618665218353], [0.13081952929496765, -0.13619165122509003, -0.03127402439713478, -0.12576265633106232, -0.02839270606637001, 0.1638001650571823, -0.041591331362724304, 0.11438294500112534, 0.020451588556170464, -0.05196655914187431], [0.16324575245380402, 0.052853625267744064, -0.039569273591041565, -0.04475192725658417, 0.027716560289263725, -0.0066759586334228516, 0.044526100158691406, -0.09698866307735443, -0.053698282688856125, -0.0035301081370562315], [0.20198342204093933, -0.24363617599010468, -0.05295392870903015, -0.02149006724357605, -0.15185408294200897, -0.04699934273958206, 0.1258636862039566, -0.14881396293640137, 0.041298165917396545, 0.011287664994597435], [0.1378651112318039, -0.11270700395107269, -0.05960133671760559, 0.09102697670459747, -0.008888605050742626, 0.01915818639099598, 0.20512406527996063, -0.16696110367774963, 0.041548099368810654, -0.1982198804616928], [0.10777811706066132, 0.12258923798799515, -0.17194077372550964, 0.022455275058746338, 0.25926288962364197, -0.16619735956192017, 0.0065579344518482685, -0.31046542525291443, 0.06465943157672882, -0.10831847041845322], [0.16236835718154907, 0.20272168517112732, -0.3009171187877655, 0.23614603281021118, 0.10266715288162231, -0.2728593945503235, -0.17224963009357452, -0.13698501884937286, 0.2302381545305252, 0.2692354917526245], [0.15186703205108643, 0.18387280404567719, -0.2727595269680023, 0.16922606527805328, -0.0605241134762764, -0.35060474276542664, -0.4343549907207489, -0.21176382899284363, 0.3081454038619995, 0.28411903977394104], [0.17152367532253265, 0.016065984964370728, -0.1120847538113594, 0.3718518912792206, 0.0561673603951931, -0.08162356913089752, -0.23823297023773193, -0.24461793899536133, 0.21017496287822723, 0.28396037220954895], [0.20509879291057587, 0.17538098990917206, -0.13857737183570862, 0.3089767396450043, 0.10883406549692154, 0.18538029491901398, -0.3102225959300995, -0.22273097932338715, 0.0849008858203888, 0.17261463403701782], [0.11548739671707153, 0.16160465776920319, -0.03901466727256775, 0.24606293439865112, 0.18967916071414948, 0.16401544213294983, -0.400642454624176, -0.04762253537774086, -0.02639724127948284, 0.0969642698764801], [0.1433829367160797, 0.24053215980529785, 0.11094391345977783, 0.43498215079307556, 0.19026024639606476, 0.19293111562728882, -0.4553082585334778, 0.08213647454977036, -0.08670403808355331, 0.10335513949394226], [0.006789348088204861, 0.4326331615447998, 0.30967608094215393, 0.3009961247444153, 0.03257465735077858, 0.11452798545360565, -0.5560607314109802, 0.06532968580722809, -0.16651639342308044, 0.053832754492759705], [-0.05098208785057068, 0.591232180595398, 0.1400660127401352, 0.13859228789806366, 0.09184464067220688, 0.17994186282157898, -0.4129956364631653, 0.21401607990264893, -0.22076909244060516, -0.20287300646305084], [-0.14011847972869873, 0.7115404605865479, 0.15459765493869781, -0.11450709402561188, 0.025126999244093895, 0.06172245368361473, -0.11460105329751968, 0.12408763915300369, -0.012253742665052414, -0.24422183632850647], [-0.28597182035446167, 0.616663932800293, 0.10020507127046585, -0.091483935713768, -0.07365904748439789, 0.044558655470609665, 0.05580855533480644, 0.17735019326210022, 0.28031301498413086, -0.2831455171108246], [-0.17620788514614105, 0.41432106494903564, 0.09285520017147064, 0.0179492998868227, -0.050143174827098846, 0.03406251594424248, 0.1817360669374466, -0.08346938341856003, 0.40933990478515625, -0.0844186320900917], [-0.1900535374879837, 0.4219394624233246, 0.1771877110004425, 0.19385837018489838, 0.08854463696479797, -0.0022364971227943897, 0.12564663589000702, -0.2566506862640381, 0.3930593430995941, -0.0342080220580101], [0.034093596041202545, 0.3938421905040741, 0.0808403342962265, 0.3191148042678833, 0.19030311703681946, -0.051708806306123734, 0.07391271740198135, -0.22475016117095947, 0.2800462245941162, -0.03586161509156227], [0.032572951167821884, 0.18598830699920654, -0.08032931387424469, 0.21370480954647064, 0.18194790184497833, 0.005975069012492895, 0.1010102853178978, -0.25376924872398376, 0.2842605710029602, 0.022486040368676186], [0.14018283784389496, 0.10532116889953613, -0.034815769642591476, 0.2090287059545517, 0.024744121357798576, 0.1114409938454628, 0.08929447084665298, -0.19422227144241333, 0.2180720716714859, 0.10326433926820755], [0.11217456310987473, 0.12877358496189117, -0.022168001160025597, 0.23474600911140442, -0.033170051872730255, 0.18695168197155, 0.034174978733062744, -0.13667556643486023, 0.23800170421600342, 0.08435095846652985], [0.1212262511253357, 0.0075426544062793255, -0.16292858123779297, 0.18982359766960144, -0.03879642114043236, 0.14164550602436066, -0.04576290026307106, -0.11856870353221893, 0.1376102715730667, 0.24694745242595673], [0.1763988584280014, -0.06536073237657547, -0.16529680788516998, 0.20353831350803375, -0.15416066348552704, 0.0746476799249649, -0.08783642202615738, -0.15288685262203217, 0.10348881036043167, 0.2619689702987671], [0.23778313398361206, -0.22718681395053864, 0.11415877938270569, 0.4019736349582672, -0.19913747906684875, -0.10367143154144287, -0.2598230838775635, -0.10850883275270462, 0.07617034018039703, 0.35553431510925293], [0.032818663865327835, -0.16136781871318817, 0.07790546864271164, 0.3386337161064148, -0.15431095659732819, 0.12085719406604767, -0.15954063832759857, 0.16692087054252625, -0.03369610384106636, 0.40735751390457153], [0.01479840837419033, -0.13803479075431824, 0.24275189638137817, 0.08795122802257538, 0.08207427710294724, 0.10527453571557999, 0.1271129846572876, -0.06429488956928253, -0.0040171886794269085, -0.15794867277145386], [-0.19571369886398315, -0.24725571274757385, 0.3061724007129669, -0.047311022877693176, 0.3039226830005646, 0.356614351272583, 0.24268323183059692, 0.3397102653980255, -0.2899244725704193, -0.3576792776584625], [-0.1423412263393402, -0.054123032838106155, 0.1264200359582901, 0.07813908904790878, 0.027603987604379654, 0.03176876902580261, 0.05682859197258949, 0.027238883078098297, -0.0108572356402874, -0.12232080847024918], [0.04020238295197487, -0.0652490183711052, -0.11196053773164749, -0.07720079272985458, -0.08226233720779419, 0.11666680872440338, -0.0991026908159256, 0.0989207848906517, -0.02842165343463421, 0.0019792248494923115], [-0.013370189815759659, 0.11986467242240906, 0.01710372418165207, 0.04056006669998169, 0.033792346715927124, 0.006805328652262688, -0.009796069003641605, -0.11770685762166977, -0.043406955897808075, 0.05774369835853577], [0.13633033633232117, 0.021243834868073463, -0.045911967754364014, 0.09965308010578156, -0.07000544667243958, 0.004590306431055069, -0.036426760256290436, -0.17949971556663513, 0.04895683750510216, -0.26782482862472534], [0.21089106798171997, -0.0647168904542923, -0.03324398770928383, -0.03258929029107094, -0.12175293266773224, 0.18783941864967346, 0.19718477129936218, -0.17126783728599548, 0.09809032082557678, -0.2729865610599518], [0.09071049094200134, -0.07425868511199951, 0.04174156114459038, 0.22375880181789398, 0.2526687979698181, 0.1089707612991333, 0.07744994014501572, -0.1504417508840561, -0.08390768617391586, -0.10118184983730316], [-0.12044748663902283, -0.08089397847652435, 0.18504340946674347, 0.43082988262176514, 0.24755075573921204, 0.01345542911440134, -0.1337495595216751, -0.10909721255302429, -0.0327560119330883, 0.19331631064414978], [-0.08473344147205353, -0.11199046671390533, 0.1087121069431305, 0.40020111203193665, 0.12718728184700012, 0.04373492673039436, -0.32278043031692505, -0.19124095141887665, 0.23864856362342834, 0.10904083400964737], [-0.0382796935737133, -0.07487909495830536, 0.1339620053768158, 0.3561598062515259, 0.1790502518415451, 0.09618626534938812, -0.2960633635520935, -0.059073325246572495, 0.056831229478120804, 0.31560471653938293], [-0.02050895430147648, 0.023291675373911858, 0.18208421766757965, 0.40697088837623596, 0.20749227702617645, 0.16924940049648285, -0.47403910756111145, -0.011602235026657581, -0.08700359612703323, 0.04377454146742821], [0.09991057962179184, 0.11866924166679382, 0.1099122166633606, 0.35013890266418457, 0.1719842404127121, 0.2292843908071518, -0.3973713219165802, 0.0407809242606163, -0.03554127365350723, -0.009518067352473736], [-0.0047254110686481, 0.2104869782924652, 0.1000446304678917, 0.22072331607341766, 0.08865826576948166, 0.1548255980014801, -0.4353572726249695, 0.09460378438234329, -0.1676454395055771, 0.2301790416240692], [-0.046187449246644974, 0.39828839898109436, 0.2306920289993286, 0.10489655286073685, -0.06700502336025238, 0.18169641494750977, -0.29960641264915466, 0.09002600610256195, -0.03186548873782158, -0.001643288298510015], [-0.15247519314289093, 0.4756079912185669, 0.15976537764072418, 0.04223816469311714, 0.05497300252318382, 0.16386187076568604, -0.22273185849189758, 0.1585272252559662, -0.033538129180669785, -0.13019214570522308], [-0.24925720691680908, 0.5991889834403992, 0.22085843980312347, -0.09601014107465744, 0.003262872574850917, 0.29333364963531494, 0.08992298692464828, 0.12327525019645691, 0.13222184777259827, -0.3701435923576355], [-0.22516217827796936, 0.5545229315757751, 0.14878785610198975, -0.00570153072476387, -0.1668376326560974, 0.19579720497131348, 0.1830292046070099, 0.14612194895744324, 0.31724628806114197, -0.3273581862449646], [-0.14194132387638092, 0.3691735863685608, 0.09641693532466888, 0.16933628916740417, -0.09671081602573395, 0.10210288316011429, 0.13043113052845, -0.17404939234256744, 0.3661843240261078, -0.16657063364982605], [-0.09115901589393616, 0.3548249304294586, 0.05047675222158432, 0.2175145149230957, 0.14361387491226196, 0.03770947828888893, 0.08648763597011566, -0.2696450352668762, 0.39900487661361694, -0.17760637402534485], [0.09128061681985855, 0.1777288019657135, 0.013185471296310425, 0.2731175124645233, 0.24883055686950684, -0.0732274129986763, 0.019319774582982063, -0.3312436640262604, 0.3296273648738861, -0.046945277601480484], [0.10502256453037262, 0.14427630603313446, -0.07403387874364853, 0.31683698296546936, 0.11580034345388412, -0.0008498408133164048, 0.18739376962184906, -0.30653199553489685, 0.27919551730155945, 0.06162306293845177], [0.19492080807685852, -0.05080240219831467, -0.059960901737213135, 0.27673929929733276, 0.03623632714152336, 0.20256254076957703, 0.1006055697798729, -0.16938941180706024, 0.09111502021551132, 0.12247207760810852], [0.28005486726760864, -0.1496792733669281, -0.08943986147642136, 0.18664969503879547, -0.008865040726959705, 0.2510015368461609, 0.14670851826667786, -0.2334659844636917, -0.001041429815813899, 0.2555004060268402], [0.2492159754037857, -0.014546437188982964, -0.13635390996932983, 0.14373649656772614, -0.1369120478630066, 0.1920469105243683, 0.18801288306713104, -0.1658553183078766, 0.08035922050476074, 0.1976364254951477], [0.32504668831825256, -0.10214294493198395, -0.16446822881698608, 0.18838714063167572, -0.14901979267597198, 0.14580364525318146, 0.12022271752357483, -0.3226611614227295, 0.01603805646300316, 0.2260761708021164], [0.25266391038894653, -0.15628661215305328, 0.009041338227689266, 0.16505709290504456, -0.10721535235643387, 0.22030040621757507, -0.06964906305074692, -0.06734685599803925, -0.012516406364738941, 0.20801271498203278], [0.16772247850894928, -0.27871254086494446, 0.05571237951517105, 0.17167417705059052, -0.07289479672908783, 0.24104024469852448, -0.11407096683979034, 0.1614040583372116, -0.11519337445497513, 0.27354690432548523], [-0.06887193769216537, -0.26777157187461853, 0.3186911344528198, 0.17833098769187927, 0.17568065226078033, 0.4114097058773041, 0.22119484841823578, 0.22244608402252197, -0.17181870341300964, -0.11476558446884155], [-0.19376738369464874, -0.42810946702957153, 0.31077519059181213, 0.12120187282562256, 0.33467987179756165, 0.3268306255340576, 0.2824990749359131, 0.24455299973487854, -0.382068008184433, -0.26842570304870605], [-0.24527260661125183, -0.07938234508037567, 0.22992239892482758, 0.0786624550819397, 0.1541260927915573, 0.2591533362865448, 0.22098930180072784, 0.02784915082156658, -0.11317270249128342, -0.12533900141716003], [0.08965794742107391, -0.09604571759700775, -0.011557772755622864, -0.003577090334147215, 0.019691165536642075, -0.0695534199476242, 0.10659336298704147, -0.05078085511922836, 0.07060113549232483, 0.07015582174062729], [0.12142416834831238, 0.12379859387874603, -0.09217130392789841, -0.12748122215270996, -0.02309238724410534, 0.10075034946203232, 0.06990273296833038, -0.06642739474773407, -0.1333388239145279, 0.012082001194357872], [0.07745489478111267, 0.1281687319278717, -0.09169141948223114, -0.10428018122911453, 0.13747471570968628, 0.0781317949295044, 0.10536719858646393, -0.12794138491153717, -0.046341922134160995, -0.10837944597005844], [0.09370050579309464, 0.05938178673386574, -0.007191093172878027, -0.1942814588546753, 0.04674358293414116, 0.3658122718334198, 0.16079333424568176, -0.11517880856990814, -0.09953516721725464, -0.3108046352863312], [-0.01655988022685051, -0.17209146916866302, 0.13570082187652588, 0.03987444192171097, 0.3655417263507843, 0.21600991487503052, 0.13206279277801514, 0.018551575019955635, -0.14961041510105133, -0.17837363481521606], [-0.12758450210094452, -0.2771764099597931, 0.2134048193693161, 0.2224733978509903, 0.4451306164264679, 0.23545674979686737, -0.12316091358661652, 0.004749033600091934, -0.1254882514476776, 0.06321027129888535], [-0.08351656794548035, -0.26274698972702026, 0.2764071226119995, 0.4341702461242676, 0.2118472009897232, 0.13558851182460785, -0.22655463218688965, -0.07781358808279037, 0.09810300916433334, 0.19784821569919586], [-0.13455834984779358, -0.03377934917807579, 0.1993863582611084, 0.520011842250824, 0.20381619036197662, -0.0034298310056328773, -0.2671722173690796, -0.21276593208312988, -0.00031965546077117324, 0.15906362235546112], [-0.23073969781398773, 0.13033893704414368, 0.349921852350235, 0.5870185494422913, 0.08220725506544113, -0.13584192097187042, -0.21504993736743927, -0.08860863745212555, 0.21287795901298523, 0.04886849969625473], [-0.13742053508758545, 0.11256913840770721, 0.3468644320964813, 0.3468121886253357, 0.046542759984731674, -0.06879515945911407, -0.23253409564495087, 0.010943574830889702, -0.026293503120541573, 0.11848447471857071], [-0.19164647161960602, 0.18555918335914612, 0.29714229702949524, 0.23587623238563538, 0.042075298726558685, 0.12932905554771423, -0.10314574092626572, 0.1907794326543808, 0.0634399801492691, 0.25722506642341614], [-0.30151453614234924, 0.21439403295516968, 0.1700415015220642, 0.1291957050561905, -0.08140949159860611, 0.16378213465213776, -0.08809918165206909, 0.197828009724617, 0.14318405091762543, 0.1805291473865509], [-0.07052280753850937, 0.25982531905174255, 0.2731052041053772, 0.07870005816221237, 0.07180269807577133, 0.179092675447464, -0.023931439965963364, 0.14249230921268463, 0.09490711987018585, -0.14394372701644897], [-0.30362847447395325, 0.43307313323020935, 0.11392424255609512, -0.03903070464730263, -0.11780895292758942, 0.4016168415546417, 0.12334109842777252, 0.12135852873325348, 0.36549872159957886, -0.46057403087615967], [-0.25046926736831665, 0.4072574973106384, 0.12391653656959534, 0.02997901290655136, -0.1229400783777237, 0.23212039470672607, 0.03943142294883728, -0.10520753264427185, 0.616247832775116, -0.3219393193721771], [-0.16433201730251312, 0.10529013723134995, 0.13976114988327026, 